{"learner":{"attributes":{"best_iteration":"2","best_ntree_limit":"3","best_score":"0.503702","scikit_learn":"{\"use_label_encoder\": false, \"n_estimators\": 5000, \"objective\": \"binary:logistic\", \"max_depth\": 15, \"learning_rate\": 0.25, \"verbosity\": 0, \"booster\": null, \"tree_method\": null, \"gamma\": null, \"min_child_weight\": null, \"max_delta_step\": null, \"subsample\": 0.5, \"colsample_bytree\": 0.5, \"colsample_bylevel\": null, \"colsample_bynode\": null, \"reg_alpha\": null, \"reg_lambda\": null, \"scale_pos_weight\": null, \"base_score\": null, \"missing\": NaN, \"num_parallel_tree\": null, \"random_state\": null, \"n_jobs\": null, \"monotone_constraints\": null, \"interaction_constraints\": null, \"importance_type\": null, \"gpu_id\": null, \"validate_parameters\": null, \"predictor\": null, \"enable_categorical\": false, \"kwargs\": {\"eval_metric\": \"auc\"}, \"classes_\": [0, 1], \"n_classes_\": 2, \"evals_result_\": {\"validation_0\": {\"auc\": [0.897372, 0.90852, 0.920071, 0.923835, 0.929064, 0.929259, 0.932125, 0.939403, 0.9444, 0.945483, 0.947808, 0.948909, 0.950969]}, \"validation_1\": {\"auc\": [0.50353, 0.502328, 0.503702, 0.503171, 0.502308, 0.502364, 0.501737, 0.501221, 0.501666, 0.501533, 0.501773, 0.501733, 0.501605]}}, \"_estimator_type\": \"classifier\"}"},"feature_names":[],"feature_types":[],"gradient_booster":{"model":{"gbtree_model_param":{"num_trees":"13","size_leaf_vector":"0"},"tree_info":[0,0,0,0,0,0,0,0,0,0,0,0,0],"trees":[{"base_weights":[-5.087892E-1,-1.3687284E0,-1.8741387E-1,-1.5994936E0,-1.0115256E0,3.154994E-1,-9.5489484E-1,-1.5360024E0,-1.9926268E0,-9.197267E-1,-1.9817767E0,5.400742E-1,-1.189466E0,-1.6143901E0,-7.252833E-1,-1.4365925E0,-1.6863619E0,-6.5316045E-1,-1.2144144E0,7.920012E-1,-2.078822E-1,-1.472506E0,-3.3089313E-1,-1.4692737E0,-1.8302687E0,-6.38138E-1,-1.9878604E0,-1.3038348E0,-1.6120249E0,-1.6912751E0,-1.5384616E-1,-1.0930537E0,5.9196617E-2,-1.5574837E0,-1.1219512E0,5.3492004E-1,1.5541401E0,-5.194729E-1,6.743993E-1,-1.4792784E0,1E0,-2.0189275E-1,-1.8490566E0,-1.4056308E0,-1.965812E0,-1.8398856E0,-7.368421E-1,-1.6501901E0,-5.4706687E-1,-1.2069672E0,-1.7364706E0,-1.6632444E0,-1.3464053E0,-1.7987192E0,-1.6133082E0,6.666667E-1,-1E0,-1.1326599E0,3.1111112E-1,3.872E-1,-5.723077E-1,-1.5798687E0,5E-1,-9.594461E-1,-1.3333334E0,6.113344E-1,-1.9736842E0,1.7653406E0,2.682927E-1,-4.672311E-1,-1.2347826E0,1.409158E0,-2.6217228E-1,-1.513151E0,-8.6206895E-1,-4.0665433E-2,-1.0927835E0,-1.2650176E0,-1.5116496E0,-1.8553505E0,-1.25E0,6.666667E-1,-1.4285715E0,-1.7070422E0,-1.0843374E0,-4.6319923E-1,-1.5987654E0,-1.2790295E0,-6.311111E-1,-1.7916666E0,-1.1111112E0,-1.6678106E0,-0E0,-0E0,-1.3918918E0,-1.8317026E0,-1.2533333E0,-1.670823E0,-1.4213198E0,-1.1707989E0,4.864865E-1,-4.7619048E-1,8.5714287E-1,-7.076923E-1,5.106383E-1,-1.1525424E0,-2.3696682E-1,-1.5991092E0,-3.3333334E-1,-9.9497485E-1,1E0,-1.503006E0,-9.885057E-1,-1.3305828E-1,7.91069E-1,1.7870464E0,-1.6190476E0,-3.783784E-1,1.5828221E0,-4.0842676E-1,-1.152E0,9.767442E-1,-1.7068063E0,1.7128547E0,-8.780488E-1,1.4609572E-1,-1.4042553E0,-1.6157541E0,-1.3880266E0,-1.3714286E0,-8E-2,-4.3776825E-1,2.5641027E-1,-1.4366198E0,-1.3333334E-1,-1.3039092E0,-6.666667E-1,-0E0,-1.5258702E0,-1.1578947E0,-1.8697956E0,-6.666667E-1,-1.68E0,-1.729809E0,-1.030303E0,-1.3015873E0,-3.3333334E-1,-5.4731315E-1,2.0283534E-1,-4.3037975E-1,-1.7486911E0,-1.451895E0,-1.01983E0,-1.1264368E0,9.818182E-1,-1.8241758E0,-1E0,-1.3846154E0,4E-1,-1.2765957E0,-1.6898317E0,-1E0,8E-1,-1.4472728E0,-5.6E-1,-1.8412699E0,-8.888889E-1,-1.3714286E0,2.2222222E-1,-1.4432989E0,-0E0,-1.073294E0,-1.5836431E0,-1.1428572E0,1.2592592E0,2.2222222E-1,-7.5E-1,1.1666666E0,-5E-1,-1.0877193E0,1.3333334E0,-4.6153846E-1,6.0465115E-1,-0E0,-1.2592592E0,-1.2E0,1.4193548E-1,-1.6346604E0,-7.692308E-1,-1E0,5E-1,-1.106383E0,-6.396761E-1,1.2E0,2.2222222E-1,-0E0,-1.5151515E0,-1.1428572E0,-4.8780486E-2,1.0567164E0,-3.8059703E-1,1.6140351E0,6.8504715E-1,5.52381E-1,1.8300562E0,9.444444E-1,-7.3207545E-1,1.1764706E0,1.7979798E0,-0E0,-4.9444672E-1,-4.6153846E-1,-1.4318181E0,1.6666666E0,8.695652E-2,-1.7988827E0,-2.5E-1,-1.5294118E0,1.7952218E0,5.263158E-1,-1.2238806E0,7.160494E-1,-2.4267782E-1,1.2380953E0,-1.8064516E0,5E-1,-1.6258438E0,7.594936E-2,-1.5211608E0,-1.548387E0,-0E0,1.2727273E0,-4.1860464E-1,-7.4666667E-1,1.1494253E-1,4.2424244E-1,-6.1538464E-1,-1.5076923E0,-4E-1,1.2E0,-6.666667E-1,-1.3229975E0,-4.347826E-1,1.0526316E-1,-9.3333334E-1,8E-1,-1E0,-1.5431862E0,-5.6E-1,-1.5294118E0,1E0,-1.8724374E0,-5E-1,2.5E-1,-1.4666667E0,-1.4285715E0,-2.5E-1,-1.6363636E0,-8.235294E-1,6.666667E-1,-7.368421E-1,-4.2336407E-1,-7.56415E-1,3.5733333E-1,-4.7953215E-1,-6.865672E-1,7.5E-1,-1.815838E0,-4.7058824E-1,-1.5010142E0,-2.9787233E-1,-1.5231788E0,-6.372549E-1,2.5E-1,-1.2345679E0,-6.666667E-1,1.7894737E0,-1.8333334E0,-5E-1,-0E0,-1.2E0,-2.2222222E-1,-1.5294118E0,-1.5764706E0,1.0769231E0,-1.7031485E0,-1.027027E0,-1.4795539E0,-0E0,-1.1578947E0,8E-1,-0E0,-1.1428572E0,-6.666667E-1,-1.5E0,-6E-1,-1.4731183E0,-1.21682E0,-8.0930233E-1,-1.6197718E0,-0E0,1.6521739E0,-5E-1,-1.3333334E0,5E-1,1.3684211E0,2.2222222E-1,-1.28E0,1.8181819E-1,-1E0,1.4285715E-1,8.606811E-1,1.7258883E-1,4E-1,-5E-1,-1.3398058E0,2.2222222E-1,-1.2857143E0,-0E0,-1.5294118E0,3.3802816E-1,-1.6616915E0,-1.0344827E0,-1.1578947E0,1.8181819E-1,-1.277533E0,-8.344371E-1,-6.77686E-1,6.666667E-1,-1.5265306E0,-2.2222222E-1,-1.2037038E0,3.3333334E-1,-7.368421E-1,4.6153846E-1,-3.508772E-1,1.7511111E0,-4.6550614E-1,1.8032787E0,1.7772397E0,4.4444446E-2,6.059973E-1,1.9707317E0,-9.0909094E-1,1.5076923E0,1.5588547E0,1.9601886E0,-1.7142858E-1,1.804878E0,-3.5675675E-1,-1.5238096E0,1.3793104E0,-0E0,-3.0123457E-1,1.0608696E0,-1.778742E-1,-6.8605417E-1,-1.5789474E0,-9.52381E-2,-1.6533333E0,-1.3333334E-1,-2.2222222E-1,6.666667E-1,-1.8961039E0,-1.0344827E0,-1E0,1E0,7.096774E-1,1.9839034E0,1.3846154E0,-8E-1,-1.5555556E0,1.1764706E-1,1.0491803E0,-2.7272728E-1,-2.0618556E-2,-1.1020408E0,5E-1,-1.9E0,-1.292181E0,-1.7192982E0,-1.027027E0,9.5652175E-1,-1.2292359E0,-1.6754717E0,5E-1,-5E-1,9.0909094E-1,-7.777778E-1,-1.2307693E0,-4.7058824E-1,4.7887325E-1,-1.2E0,-4E-1,5.614035E-1,-1.2941177E0,5.4545456E-1,-1.3333334E-1,-1.0769231E0,-1.3298701E0,-0E0,-1.3333334E0,4E-1,6.666667E-1,-5.4545456E-1,-1.1578947E0,1.8181819E-1,-0E0,-1.549133E0,-1.4285715E0,4E-1,-1.7333333E0,-0E0,1E0,-3.3333334E-1,5.4545456E-1,-1.1111112E0,-1.0666667E0,5E-1,-0E0,-9.3333334E-1,-5.886821E-1,-1.9636364E-1,-8.8372093E-1,-4.5193508E-1,6.3849765E-1,-1.21951215E-2,-7.4380165E-1,1.4814815E-1,5.714286E-1,-9.4736844E-1,1E0,-0E0,-1.8218924E0,-5E-1,-1.2E0,4.4444445E-1,-1.5144033E0,-4.4444445E-1,7.586207E-1,-1.6363636E0,-1.6666666E0,-1.0256411E0,-4.5427728E-1,-1.4520547E0,-2.2222222E-1,5.4545456E-1,-1.0344827E0,-1.6E0,-8.235294E-1,-0E0,-1.65E0,-2.2222222E-1,-1.7941953E0,-1.5724138E0,-1.5555556E0,2.857143E-1,-1.7113402E0,-1.3181819E0,-1.3846154E0,-4E-1,-1.2E0,-0E0,-1.5384616E-1,-9.0909094E-1,-1.6903226E0,-1.2941177E0,-7.027027E-1,-1.3322529E0,-9.9421966E-1,-4.5454547E-2,-1.6447877E0,-0E0,-1.3913044E0,-0E0,-1.3043479E0,2.2222222E-1,-5E-1,7.5E-1,1.0608696E0,3.5051546E-1,3.0508474E-1,-8.333333E-1,2.2222222E-1,-1.4285715E0,-1.3846154E0,-0E0,5.038168E-1,-1.2E0,-7.368421E-1,-1.6899225E0,-0E0,-1.2E0,-0E0,-1.4666667E0,-1.4078947E0,-9.87013E-1,-6.666667E-1,-1.8095238E0,-1.0361446E0,-4.785276E-1,-1.5536481E0,-8.5714287E-1,-1.4330709E0,-8.3870965E-1,5E-1,-0E0,5E-1,-1.2E0,8.5714287E-1,-6.666667E-1,-8.5714287E-1,9.411765E-1,1.8538812E0,-1.2E0,-7.42115E-1,1.6352202E-1,1.8596492E0,5E-1,1.1358025E0,1.9221557E0,6.181818E-1,-7.692308E-1,-4.1353384E-1,6.934413E-1,1.9802955E0,5E-1,-1.2857143E0,-2E-1,-1.5384616E-1,1.7857143E0,-5.1282052E-2,1.6211454E0,6.666667E-1,1.9662803E0,-6.666667E-1,6.666667E-1,-7.89916E-1,4E-1,1.4716982E0,2.2222222E-1,-5E-1,4E-1,1.7801048E-1,-7.155963E-1,1.48E0,-1.3684211E0,-3.337335E-1,1.2258065E0,9.944751E-2,-7.9041916E-1,-7E-1,8.148148E-1,-1.6923077E0,-5.4545456E-1,-6.666667E-1,5E-1,-0E0,-1.5789474E0,1.1898735E0,-1.5555556E0,-4E-1,-1.6666666E0,6.666667E-1,-3.3333334E-1,1.2280701E0,-1E0,3.75E-1,-1.5E0,3.8655463E-1,-6.329114E-1,-0E0,-1.3846154E0,-1.6756756E0,-9.411765E-1,-0E0,-1.7279598E0,-0E0,-1.1515151E0,-1E0,1.2380953E0,-1.2916666E0,1.1764706E-1,-1.6882129E0,-0E0,5.4545456E-1,-1.1724138E0,-1.4166666E0,5E-1,-2.7272728E-1,-1.3333334E0,8.5714287E-1,-7.368421E-1,6.666667E-1,-8.965517E-1,3.030303E-1,1.1641791E0,-0E0,-1.5714285E0,1.0588236E0,-6.666667E-1,-6.666667E-1,4E-1,-1.2760181E0,-1.6036036E0,9.0909094E-1,-5E-1,1E0,-0E0,-1.2941177E0,-0E0,-1.5551257E0,-0E0,1.2E0,-6.666667E-1,-0E0,-5E-1,-1.5384616E-1,-1.4285715E0,-1.2E0,-2.2222222E-1,-7.6850766E-1,-2.5882354E-1,-2.867215E-1,4.845815E-1,-1.3229571E-1,-9.993899E-1,-3.0409357E-1,-1.2727273E0,3.800623E-1,1.3761468E0,-6.122449E-1,2.3931624E-1,-3.2098764E-1,-1.4545455E0,1.1304348E0,-5.1428574E-1,1.2E0,-5E-1,-1.0769231E0,2.2222222E-1,-1.4666667E0,-2.2222222E-1,1.0769231E0,-6.666667E-1,-1.1020408E0,-1.5535307E0,-1E0,4E-1,1.6E0,-7.692308E-1,-1.1351352E0,-1.7333333E0,-1.2258065E0,-2E-1,-2.779661E-1,-1.5E0,-1.7142857E0,-4.7619048E-1,-1.2727273E0,-5.116279E-1,-3.3333334E-1,-1.1111112E0,-6.666667E-1,-1.7222222E0,-5.4545456E-1,-1.6225046E0,6.666667E-1,-2.2222222E-1,-1.7419355E0,-5E-1,-1.4710743E0,-9.1525424E-1,-5E-1,5E-1,-6.666667E-1,5E-1,-1.7297298E0,-5.4545456E-1,-7.741935E-1,-1.4601227E0,-1.3333334E0,-1.8604651E-1,-1.3508197E0,1.8181819E-1,-6.930693E-1,-1.3783784E0,-5.777778E-1,4.680851E-1,-1.6872427E0,-8E-1,-2.2222222E-1,-1.5555556E0,-1E0,5E-1,1.2727273E0,-2.2222222E-1,7.118644E-1,1.3793104E0,1.4E0,7.4074075E-2,-8.695652E-2,6.966292E-1,-1.3333334E-1,-1.3846154E0,-1.5384616E0,-8.333333E-1,-1.4893616E0,-2.2222222E-1,6.666667E-1,-9.3333334E-1,-1.3846154E0,4E-1,-1.0864197E0,-1.7260274E0,-1.0857143E0,-0E0,-4.4324324E-1,-1.1325301E0,-1.5384616E-1,-1.3442622E0,8.695652E-2,-5.555556E-1,-1.6601307E0,-1.3170732E0,-1.25E0,-2.5E-1,-1.5121951E0,5E-1,-8.695652E-2,-1.027027E0,-0E0,1.0588236E0,-1.3488373E0,-3.1111112E-1,1.6923077E0,-1E0,-6.666667E-1,1.9252336E0,-1.5507246E0,-4.6153846E-1,3.1381732E-1,-1.037037E0,1.8181819E0,3.0769232E-1,1.939759E0,-5E-1,-7.826087E-1,1.4444444E0,-1.030303E0,4E-1,-7.826087E-1,4.047619E-1,3.255814E-1,8.9513296E-1,-2.2222222E-1,-1.4782609E0,-8E-1,2.857143E-1,-1E0,6.666667E-1,-9.62963E-1,1.5E0,1.6730988E0,-6.451613E-2,1.2727273E0,-5E-1,1.970339E0,8.5714287E-1,4.6153846E-1,-1.4666667E0,-0E0,9.0909094E-1,1.0769231E0,-9.818182E-1,-1.2E0,1.1836735E0,-1.3513513E-1,1.1489362E0,-8.7830687E-1,3.030303E-1,-7.368421E-1,1.9058824E0,-5.1343286E-1,3.9520958E-1,-5E-1,1.5061729E0,-6.236559E-1,8.2608694E-1,-6.868327E-1,-1.3148148E0,-8E-2,-1.3684211E0,1.2380953E0,-4E-1,-1.751938E0,-8.888889E-1,-1.1428572E0,5E-1,1.3333334E0,-1E0,5E-1,-4E-1,6.938776E-1,1.7647059E0,6.3829786E-1,1.5492958E0,-7.368421E-1,1.5294118E0,7.5E-1,-3.255814E-1,-9.714286E-1,1.3846154E0,-4.6153846E-1,-1.6E0,6.666667E-1,-1.0229008E0,-1.740458E0,-3.3333334E-1,-5.263158E-1,-1.5555556E0,1.5428572E0,-1.8181819E-1,-1.5658915E0,-1.0429448E0,8E-1,-5.4545456E-1,-1.7E0,-4E-1,-1.36E0,-0E0,-2.5E-1,-1.7777778E0,7.692308E-1,-4.3037975E-1,1.04E0,-4E-1,-9.3333334E-1,-0E0,-0E0,9.0909094E-1,-1.0909091E0,-1.8181819E-1,5.7342654E-1,-1.2307693E0,-0E0,1.4181818E0,1.3846154E0,-0E0,-1.0463576E0,-1.3333334E0,-1.6603774E0,-2.2222222E-1,-1.4216868E0,-1.6666666E0,-5E-1,2.2222222E-1,-9.3428063E-1,-4.413793E-1,-6.403941E-1,3.3771105E-2,-2.1038616E-1,-8.4313726E-1,-6.593407E-2,8.2857144E-1,-4.370861E-1,2.9090908E-1,-1.1603875E0,-7.8431374E-1,-1.9858156E-1,-7.741935E-1,-1.6410257E0,-5.531915E-1,5.1194537E-1,-8.75E-1,-5E-1,1.4666667E0,6.666667E-1,-8.5714287E-1,-1.3043479E0,4E-1,-5.507246E-1,7.5E-1,-1.6756756E0,-1.8181819E-1,2.2222222E-1,1.3333334E0,-1.1578947E0,2E-1,-4.2857143E-1,-1.5714285E0,-1.5068493E0,6.896552E-2,-1.5700935E0,-7.692308E-1,-1.1111112E0,-0E0,-1.5384616E-1,-1.4285715E0,-3.529412E-1,-1.4285715E0,-1.1111112E0,4E-1,-4.6494466E-1,1.5714285E0,-4E-1,-1.6190476E0,-5.4545456E-1,-1.8367347E0,4.6153846E-1,-1.3333334E0,-6.2857145E-1,-1.6521739E0,-7.027027E-1,4E-1,-0E0,-1E0,-1.1578947E0,2.2222222E-1,-1.2307693E0,-1.672956E0,-1.5428572E0,-8E-1,-1.1489362E0,-0E0,-1.483871E0,-5.7142857E-2,-4.4444445E-1,-1.5436242E0,-2.2222222E-1,-1.409836E0,-1E0,4.8E-1,-1.4435484E0,-9.1525424E-1,-9.93007E-1,3.1746034E-2,-8.196721E-1,-1.6923077E0,6.666667E-1,-8E-1,-1E0,6.976744E-1,2.2222222E-1,-1.2E0,1.1515151E0,1.4285715E-1,1.4444444E0,3.3333334E-1,-1.6666667E-1,1.3846154E0,-7.826087E-1,5.6E-1,-2.4E-1,1E0,5.4545456E-1,-1E0,-1.641791E0,-6.666667E-1,-1.5384616E-1,-1.2E0,-1.7E0,-1.8181819E-1,4.090909E-1,1.2222222E0,-2.2222222E-1,-1.2E0,-1.1428572E0,-0E0,-1.7464789E0,-5E-1,-1.2142857E0,-5E-1,9.0909094E-1,-9.0909094E-1,-1.1666666E0,-3.272727E-1,1.3333334E-1,-1.3333334E0,-6.666667E-1,4E-1,-1.4181818E0,-4E-1,-3.1578946E-1,1E0,-7.2E-1,-1.6666667E-1,-1.6870748E0,-7.5E-1,-9.5384616E-1,-1.4951457E0,4E-1,-8E-1,-1.5517242E0,-5.4545456E-1,6.666667E-1,-6.666667E-1,-1.8181819E-1,-1.1044776E0,-0E0,-1.4871795E0,-1.1428572E0,8.5714287E-1,1.9428571E0,5E-1,-1.6062992E0,-7.692308E-1,6.3829786E-1,-6.9058293E-1,-2.2413793E-1,9.3467337E-1,-0E0,-1.4E0,-6.122449E-1,1.6363636E0,-1.0588236E0,-0E0,5E-1,-1.3103448E0,-5.787546E-1,-1.3131313E0,1.891892E-1,1.6666666E0,7.711487E-1,-1.41527E-1,1.7105263E-1,9.5387954E-1,1E0,-4E-1,1.7940718E0,1.3278688E0,-1.2941177E0,1.1111112E0,-0E0,1.2E0,-2.2222222E-1,1E0,1.1111112E0,-1.1238096E0,-1.8181819E-1,-1.5555556E0,1.4545455E0,-6.666667E-1,3.3333334E-1,-9.285714E-1,1.7948718E0,-1.3333334E0,-1.0117648E0,2.6086956E-1,-5.882353E-1,1E0,-1.5384616E-1,-1.2E0,1.9512194E-1,-7.372549E-1,1.0819672E0,-0E0,-0E0,-8E-1,1.8490566E0,7.5E-1,-1.0285715E0,5.185185E-1,-1E0,9.5454544E-1,-7.6492536E-1,8.5714287E-1,-1.4095238E0,1.2E0,-1.2E0,5.263158E-1,-0E0,-1.3333334E0,2.2222222E-1,1.5294118E0,-3.529412E-1,1.0588236E0,1.7142857E0,7.368421E-1,-1.4666667E0,1E0,-1.3333334E0,1.0555556E0,7.692308E-1,-7.058824E-1,5E-1,-1.3103448E0,-1.1851852E0,-2.2222222E-1,-1.768506E0,-1.1489362E0,-1E0,5E-1,-8.5714287E-1,2.2222222E-1,4E-1,1.7241379E0,-1.8181819E-1,-1.6393442E0,-4.375E-1,-1.3786408E0,-1.5555556E0,-5.4545456E-1,-1E0,1E0,-1.1111112E0,-2.1538462E-1,1.8181819E-1,1.1627907E0,-2.2222222E-1,-1.2E0,-1.2941177E0,-2.2222222E-1,2.0512821E-1,9.5652175E-1,-1.4545455E0,-0E0,6.666667E-1,-1E0,1.5294118E0,-0E0,-1.2307693E0,8E-2,-5E-1,-1.3492063E0,-1.477516E0,-5.1428574E-1,-6.666667E-1,-1.6766918E0,1.9354838E-1,-9.962547E-1,-1.5659955E-1,-1.3576642E0,-1.168E0,-4E-1,-1.6766468E-1,3.6453202E-1,-1.4739884E-1,-9.1803277E-1,-1.1304348E0,2.1276596E-1,3.2E-1,-4.888889E-1,1.037037E0,1.1111111E-1,-6.306306E-1,9.090909E-2,5.652174E-1,-9.0909094E-1,-1.3012048E0,-7.95539E-1,-1.5584415E-1,-9.5035464E-1,-9.917355E-2,-7.619048E-1,-1.0886075E0,-2.0408164E-1,-8.4210527E-1,4.6153846E-1,1.0649351E0,3.090909E-1,-1.3333334E0,3.3333334E-1,1.7288135E0,1.04E0,-0E0,8.5714287E-1,-1.04E0,4.6153846E-1,-1.5294118E0,-4E-1,7.4125874E-1,-2.631579E-1,3.6363637E-1,-9.019608E-1,-0E0,1E0,-1.7575758E0,-5E-1,6.666667E-1,-6.666667E-1,1.1764706E-1,-9.3333334E-1,-6E-1,-1.7192982E0,8E-1,-1.0769231E0,-1.5206392E0,-1.853211E0,-1.2E0,-1.3333334E-1,2.2222222E-1,-5E-1,-1E0,6.666667E-1,-4E-1,1.1111112E0,-1.0697675E0,8.219178E-2,-1.7647059E0,-6.666667E-1,6.666667E-1,-0E0,-1.25E0,-8.695652E-2,-8.8E-1,-2.5E-1,4.6153846E-1,-2.2222222E-1,-7.2727275E-1,-1.6842105E0,-1.7136259E0,-1.1666666E0,-1.2E0,2.2222222E-1,-1.5294118E0,-1.1764706E-1,-9.0909094E-1,1.1111112E0,-4E-1,-1.68E0,-6.086956E-1,7.5E-1,-0E0,-8E-1,-1.6814159E0,-1E0,-1.2222222E0,5E-1,-1.2727273E0,8.8372093E-1,-1.4767933E0,-6.1538464E-1,-5.7471263E-1,-1.6571429E0,5E-1,-1.1450381E0,4.680851E-1,-1E0,-1.3939394E0,-1.25E-1,-1.8285714E0,-1.04E0,3.3333334E-1,-1.125E0,9.189189E-1,-4E-1,1.2982457E0,1.5384616E-1,6.666667E-1,-8.5714287E-1,1.1764706E0,1.7272727E0,-5E-1,1E0,-3.030303E-1,8E-1,-1.125E0,-0E0,1.2941177E0,1.6216215E-1,-8.888889E-1,9.0909094E-1,2.6086956E-1,1.2653061E0,-1.7333333E0,-5.4545456E-1,-0E0,-1.1111112E0,-1E0,6.666667E-1,-6.666667E-1,8.3076924E-1,1.5E0,-5E-1,-1.7142857E0,-9.846154E-1,5E-1,-5E-1,-3.3333334E-1,-1.2692307E0,9.52381E-2,-1.2E0,2.4390244E-1,-5E-1,-4E-1,6.666667E-1,-9.5652175E-1,-1.7333333E0,-1.2E0,2.2222222E-1,-2.2222222E-1,8E-1,2.2222222E-1,-5.714286E-1,-7.9569894E-1,1.8181819E-1,3.0769232E-1,-6.1538464E-1,-1.7246376E0,-9.0909094E-1,-1E0,-0E0,-1.2727273E0,-2.4E-1,-1.0243902E0,-1.6969697E0,-5.4545456E-1,-1.5963303E0,-1.2E0,2.2222222E-1,-6.666667E-1,-1.2727273E0,-1.3684211E0,-4.6153846E-1,1.4666667E0,-4E-1,-1.6275303E0,-5.4545456E-1,2.2222222E-1,-1.0476191E0,-9.767442E-1,1.2941177E0,-9.0222985E-1,7.111111E-1,3.561644E-1,-1.1555556E0,2.2222222E-1,1.113924E0,-8E-1,6.666667E-1,-1.6571429E0,2.2222222E-1,8.5714287E-1,-1.0769231E0,-0E0,-1.3846154E0,-6.5648854E-1,9.3333334E-1,-1.3617021E0,-2.2222222E-1,1.6521739E0,-7.751938E-2,1.9064125E-1,1.3745455E0,6.9709545E-1,-8.187919E-1,-5.7831323E-1,1.0422535E0,8.510779E-1,1.4074074E0,1.9223301E0,1.5364807E0,2.6086956E-1,1.4133333E0,-1.8181819E-1,-1.3103448E0,5.882353E-1,1.7419355E0,8.6567163E-1,-7.878788E-1,-1.4117647E0,-1.5384616E-1,-3.859649E-1,-1.2820513E0,6.666667E-1,-3.3333334E-1,-9.0909094E-1,-0E0,-1.3513514E0,6.259542E-1,-1.483871E0,-4.923077E-1,1.4074074E0,-9.0909094E-1,1.68E0,-4.7191012E-1,1.1428572E0,-1E0,-1.3207548E0,-9.52381E-2,9.5652175E-1,-1E0,1.7575758E0,4.4067797E-1,-9.2478424E-1,-2.6415095E-1,1.2888889E0,-6.666667E-1,-1.4653466E0,-0E0,-1.8181819E-1,1E0,7.2E-1,-6.666667E-1,1.5384616E-1,-1E0,5.263158E-1,1.3684211E0,5E-1,1.7692307E0,-6.666667E-1,1.4285715E0,1.4166666E0,2.857143E-1,-1.3333334E0,-3.0769232E-1,-1E0,1.3333334E0,-1.6571429E0,-6.666667E-1,-1.3118279E0,-3.1578946E-1,-1.3333334E0,1.3846154E0,-1.5E0,5.4545456E-1,-0E0,-1.2E0,-9.3333334E-1,6.086956E-1,-0E0,-1.4947368E0,-1.4285715E0,-0E0,4E-1,-6.666667E-1,1.2941177E0,4.6153846E-1,1.2941177E0,-9.2307694E-2,1.2727273E0,3.448276E-1,1E0,-0E0,1.6444445E0,4E-1,-1.264E0,-2.2222222E-1,4.7619048E-1,-1E0,-1.2727273E0,6.666667E-1,-1.5023923E0,-1.2240803E0,-1.5331808E0,-5.882353E-1,8E-1,-8.965517E-1,-0E0,-1E0,-9.714286E-1,1.483871E0,-1.0310078E0,-0E0,-4.7540984E-1,2.2222222E-1,-1.6483517E0,-7.2E-1,-6.666667E-1,-1.5E0,-4.908425E-1,1.25E0,-3.436426E-2,-9.787234E-1,7.034483E-1,-4.516129E-1,-2.3560673E-1,2.3938224E-1,-1.0714285E0,5.714286E-1,-2.0689656E-1,-1.2941177E0,5E-1,-9.0909094E-1,-4E-1,7.058824E-1,-1.3846154E0,-1.1111111E-1,2.6666668E-1,1.2682927E0,-8.5714287E-1,1.1578947E0,9.52381E-2,-7.659575E-1,4.4444445E-1,-1E0,9.62963E-1,-0E0,-1.1111112E0,-0E0,-1.325228E0,8E-1,-8.3773583E-1,1E0,1.0769231E0,-2.6206896E-1,-8.534483E-1,-1.3461539E0,-1.9854721E-1,4.5333335E-1,-8.86076E-1,6.666667E-1,-1.1891892E0,2.2222222E-1,-4.864865E-1,5E-1,-1E0,-0E0,1E0,-2.2222222E-1,-5E-1,1.1780822E0,-6.666667E-1,3.883495E-1,-1.5789474E0,-2.2222222E-1,5E-1,-0E0,1.7818182E0,5E-1,3.3333334E-1,1.4666667E0,1.1111112E0,2.2222222E-1,-1.2352941E0,5.4545456E-1,1.1111112E0,-5E-1,1E0,-1.7142858E-1,-6.415094E-1,5.185185E-1,-1.5384616E-1,7.692308E-1,-1.1627907E0,3.3333334E-1,-0E0,1.1111112E0,6.666667E-1,-6.666667E-1,-1.2727273E0,-0E0,-1.1428572E0,4E-1,-1.773585E0,-5E-1,1.1428572E0,-0E0,-1.538874E0,6.666667E-1,4E-1,-6.666667E-1,2.857143E-1,-1.1932774E0,-1.0769231E0,3.2258064E-1,-0E0,-1E0,-5.714286E-1,4.6153846E-1,-2.2222222E-1,-1E0,5.4545456E-1,-1.1111112E0,5E-1,-9E-1,-0E0,-1.4E0,-1.7333333E0,-0E0,-7.692308E-1,1E0,-9.3333334E-1,-0E0,1.2E0,-0E0,5E-1,-5E-1,-1.4074074E0,-1.1764706E-1,-2.2222222E-1,-1.3548387E0,-1E0,1.4285715E0,-1.2631578E0,-1.5972222E0,9.0909094E-1,-1.3684211E0,-1.4074074E0,-1.875E-1,1.2727273E0,-6.666667E-1,-1.3814433E0,-4.2105263E-1,-1.1111112E0,7.619048E-1,-0E0,-1.25E0,-1.3333334E0,1.1111112E0,-1.6E0,6.666667E-1,-5E-1,1E0,-1.4074074E0,2.2222222E-1,1.2E0,-1.8181819E-1,1.5897436E0,5.4545456E-1,5E-1,-2.2222222E-1,-1.1764706E-1,1.0769231E0,-1.3846154E0,-0E0,-0E0,1.25E0,2.857143E-1,-5.3061223E-1,1.8181819E-1,-1.52E0,5.714286E-1,-1E0,7.5E-1,-2.4E-1,-3.3333334E-1,-1.2E0,5.882353E-1,-4E-1,4E-1,1.3488373E0,-8.888889E-1,-1.5384616E-1,-5E-1,9.508197E-1,-1.0442477E0,-4.7619048E-1,-5E-1,-0E0,-1.4202899E0,-8.717949E-1,5E-1,-6.666667E-1,-3.529412E-1,5.714286E-1,-8.8372093E-1,-2.9213482E-1,-1.2432432E0,1.5384616E-1,-1E0,-0E0,-4E-1,-1.0769231E0,-1.3333334E-1,6.666667E-1,-1.0526316E-1,-1.2727273E0,-1.2941177E0,2.2222222E-1,-1.5428572E0,-1.5384616E-1,-8.235294E-1,6.666667E-1,-1.3142858E0,4E-1,-5E-1,-1.7419355E0,5E-1,-9.5652175E-1,-1.6190476E0,-8.148148E-1,2.2222222E-1,-1E0,-1.6771301E0,-1E0,-1.4285715E0,-1.8181819E-1,2.5E-1,-1.483871E0,1.5652174E0,-8.5714287E-1,-1.1394422E0,5.411765E-1,-7.1428573E-1,1.2727273E0,-7.936508E-1,1.1724138E0,2.2222222E-1,-1.4210526E0,-8E-1,4.6153846E-1,1.178808E0,-1.8181819E-1,1E0,-0E0,1.1111112E0,2.2222222E-1,-1.25E0,-1.8181819E-1,-8.811189E-1,-3.7398374E-1,1.2727273E0,-0E0,-5.714286E-1,-1.4285715E0,-4.5454547E-1,6.666667E-1,7.090909E-1,-1.4326241E0,-4E-1,1.5789474E0,-6.329114E-1,9.4840294E-1,-1.4380165E0,-3.9106146E-1,-1.1891892E0,-8.3333336E-2,1.3628318E0,-1.8181819E-1,9.3500173E-1,-8.7323946E-1,1.6587031E0,-2.3655914E-1,-0E0,1.6651163E0,1.3846154E0,-8.5714287E-1,1.8181819E-1,1.4495413E0,-1.0769231E0,7.692308E-1,-1.6065574E0,-5.3333336E-1,1.3846154E0,-1E0,-8.695652E-2,1.25E0,-0E0,-1.5294118E0,-1.7037038E0,-1.8181819E-1,5.714286E-1,-7.5E-1,-1.5E0,3.783784E-1,-8E-1,-1.3846154E0,-1.625E0,2.2222222E-1,1.3684211E0,5.1282052E-2,-1.3333334E-1,-1.6106194E0,-1.6170213E-1,-9.685535E-1,2.5E-1,1.7142857E0,-6.8292683E-1,1.2727273E0,-5.6E-1,-1.75E0,-1.1111112E0,5E-1,-2.2222222E-1,1.3333334E0,-1.5294118E0,1.1304348E0,-9.948186E-1,4.1860464E-1,2.4444444E-1,-1.2808989E0,7.826087E-1,1.5384616E0,-9.2537314E-1,-1.6834532E0,-1E0,1E0,1.5348837E0,2.2222222E-1,7.826087E-1,-1.1111112E0,2.2222222E-1,-4.7619048E-1,1.1111112E0,-1.2727273E0,-1.4022988E0,-0E0,3.3333334E-1,-9.0909094E-1,-1.2592592E0,-3.6363637E-1,1.2E0,-3.3333334E-1,-1E0,1E0,-1.5862069E0,-3.3333334E-1,9.5652175E-1,-9.0909094E-1,-1.2380953E0,-0E0,5.714286E-1,1.5E0,1.1111112E0,-5E-1,-5.945946E-1,5E-1,-9.52381E-2,1E0,6.666667E-1,1.7837838E0,-1.3394495E0,-6E-1,1.1111112E0,-0E0,-1.6321839E0,-7.692308E-1,-1.240678E0,-0E0,-1.5742574E0,-9.189189E-1,1.2727273E0,-1.2592592E0,-1.8181819E-1,-1.0909091E0,6.666667E-1,-1.3333334E0,-8.0382776E-1,-1.1779935E0,-7.368421E-1,5.6E-1,8.955224E-2,-6.7403316E-1,3.9106146E-1,-7.5E-1,-1.7647059E0,-0E0,6.666667E-1,-9.3333334E-1,-0E0,-8.8372093E-1,-1.3513514E0,-3.5E-1,-1.0769231E0,6.69145E-2,-1.4482758E0,-1.8181819E-1,3.3333334E-1,1.3207548E0,-7.755102E-1,5.882353E-1,2.1052632E-1,-3.4696132E-1,-3.0985916E-1,4.375E-1,-1.3766234E0,-3.5897437E-1,-2.2222222E-1,1.1111112E0,-5.4545456E-1,5.4545456E-1,-1.5E0,-8.4615386E-1,8.695652E-2,8.5714287E-1,-9.3333334E-1,6.666667E-1,1.0344827E0,-6.666667E-1,6.666667E-1,-9.4736844E-1,1.3846154E0,-4.7619048E-1,3.1578946E-1,1.4626865E0,-1.25E0,2.2222222E-1,1.4666667E0,-0E0,-8E-1,6.666667E-1,-1.3170732E0,-3.1578946E-1,1E0,-5E-1,1.3170732E0,-1.1764706E-1,1.0769231E0,-4.2424244E-1,-0E0,-1.4285715E0,-1.4984709E0,-1.1402985E0,5E-1,-8.659004E-1,-3.5971224E-1,1.2E0,-9.35867E-1,-4.255319E-2,-1.4E0,-0E0,3.4920636E-1,-2.937853E-1,7.096774E-1,-5.882353E-1,-0E0,-1.0769231E0,-1.4E0,-2.2222222E-1,2E-1,-1.0476191E0,-4E-1,1.2E0,-1.5294118E0,-3.1578946E-1,1.2903225E0,4E-1,-1.8181819E-1,-9.0909094E-1,1.4E0,2.736842E-1,-5.4545456E-1,8.235294E-1,-1.3125E0,-0E0,1.1919192E0,-3.529412E-1,-6.666667E-1,1E0,-1.2E0,7.4074075E-2,1.1111112E0,-4.6153846E-1,-6.666667E-1,5E-1,1.1111112E0,-0E0,-4.7619048E-1,-1.5384616E0,-0E0,5E-1,1E0,-0E0,-1.5524862E0,-9.230769E-1,-4E-1,1E0,-1.2347826E0,-0E0,6.511628E-1,-3.809524E-1,-1.3333334E0,-3.3333334E-1,-1.0857143E0,2.2222222E-1,1E0,-1E0,-0E0,-1.5555556E0,-1E0,-2.2222222E-1,4E-1,-5.4545456E-1,-6.666667E-1,-1.6E0,1.7419355E0,-5E-1,-4E-1,-1.3609468E0,-1.1578947E0,-1.6765957E0,4.516129E-1,-7.027027E-1,-1.4666667E0,-1.8181819E-1,-8.148148E-1,4E-1,1.1764706E0,-6.666667E-1,2.2222222E-1,1.3846154E0,1.3846154E0,-0E0,1E0,-0E0,-6.666667E-1,3.3333334E-1,1.8181819E-1,1.3684211E0,5E-1,-5E-1,1.4418604E0,7.2E-1,8E-1,-1.3333334E-1,-7.4074075E-2,-9.230769E-1,1E0,-0E0,1.2E0,-0E0,-5.714286E-1,1.3333334E-1,-5E-1,-0E0,-1.8181819E-1,1.2E0,1.4444444E0,5.4545456E-1,-2.2222222E-1,-1.0769231E0,2.2222222E-1,-5E-1,1.255814E0,1.8181819E-1,-1.1340206E0,-4E-1,4E-1,-9.3333334E-1,-1.5471698E0,-8E-1,1.1111112E0,-1.8181819E-1,-1E0,1.5384616E-1,8.333333E-1,-5E-1,-1.2E0,-3.6363637E-1,1.904762E-1,-6.666667E-1,-1.4666667E0,-1.8181819E-1,-6.666667E-1,1E0,-7.878788E-1,5E-1,-1.5384616E-1,-1.255814E0,5E-1,-5.4545456E-1,-0E0,9.0909094E-1,-6.666667E-1,2.857143E-1,-1E0,6.666667E-1,-1.8181819E-1,-1.2E0,1E0,-0E0,-1.68E0,-2.857143E-1,-1.3846154E0,-2.857143E-1,4E-1,-1.2380953E0,-1.7621622E0,-1.1428572E0,3.3333334E-1,-1.6E0,-1.1111112E0,1.2727273E0,5.263158E-1,1.7402598E0,-0E0,-1.2E0,-9.037901E-1,-1.6073619E0,1.7894737E0,-4.3137255E-1,-1.2380953E0,5.4545456E-1,1.8367347E0,-2.857143E-1,-1.255814E0,1.6666667E-1,1.2682927E0,-2.2222222E-1,8E-1,-3.3333334E-1,-1.5294118E0,-3.3333334E-1,-6.666667E-1,7.058824E-1,1.2328767E0,-2.2222222E-1,-3.3333334E-1,-1.5E0,-9.8507464E-1,4.6153846E-1,-9.3023255E-2,-9.268293E-1,-8E-1,-0E0,1E0,-6.5E-1,1.125E0,-3.529412E-1,1.6279069E0,6.0349125E-1,-1.6842105E0,-3.2258064E-1,-1.5384616E0,4.2105263E-1,1.7620137E0,1.6393442E-1,-7.9452056E-1,8E-1,6.1417323E-1,1.4649682E0,-1.5536481E0,1.0769231E0,-7.126437E-1,4.5544556E-1,2.2222222E-1,-1.3043479E0,-3.4666666E-1,7.2E-1,1.7272727E0,6.896552E-2,-1.3846154E0,5E-1,8.0698353E-1,1.2527473E0,-1.3846154E0,-2.3529412E-1,2.2222222E-1,1.6923077E0,1.1111112E0,-7.4285716E-1,-1.1428572E0,1.3333334E0,1.7740113E0,1.0476191E0,-1.1111112E0,-2.2222222E-1,1.4951457E0,5E-1,-0E0,1.1111112E0,-1.75E0,-8.235294E-1,6.666667E-1,-8.8E-1,1.1111112E0,-6.666667E-1,-2.2222222E-1,1.3333334E-1,-0E0,8E-1,1.0769231E0,-0E0,-0E0,-1E0,-4.6153846E-1,1.75E0,1.4285715E0,-2.3529412E-1,-1.6697248E0,-0E0,8.2474224E-2,-1.2E0,-1.0872483E0,5.714286E-1,-1.1111112E0,1.2727273E0,-1.625E0,-7.4074075E-2,-8.5714287E-1,-1.3333334E-1,-1.8181819E-1,1.1111112E0,2.2222222E-1,1.2195122E0,-1.1097373E0,-3.875969E-1,1.2307693E0,-6.666667E-1,-3.5820895E-1,1.84E0,-1.7746478E0,5.4545456E-1,1.5E0,-5.4545456E-1,-1.2156863E0,-0E0,-1.7333333E0,-0E0,6.666667E-1,1.6571429E0,-0E0,-5.882353E-1,-1.5555556E0,-0E0,-1.4567901E0,-4E-1,1E0,-5E-1,-1.4545455E0,-2.2222222E-1,-1E0,2.857143E-1,-5E-1,-0E0,-4.6153846E-1,-1.6923077E0,-0E0,-5E-1,1.2941177E0,-0E0,-2.2222222E-1,-1.5E0,-1.1111112E0,5.882353E-1,-0E0,1E0,-1E0,-9.52381E-2,1.25E0,-2E-1,4E-1,-8E-1,1E0,-0E0,-2.857143E-1,-1.4343435E0,-1.0769231E0,1.8181819E-1,-5E-1,3.3333334E-1,5E-1,-9.714286E-1,-1.0679612E0,-1.5698925E0,-1.6108108E0,-1.0526316E0,-1.3333334E-1,-1.2307693E0,-0E0,-1.4782609E0,-9.9041533E-1,-2.3853211E-1,-1.2464789E0,-3.7037036E-1,-0E0,-9.3333334E-1,8E-1,-2.2222222E-1,3.0508474E-1,-1E0,-5.4545456E-1,-1.2258065E0,6.031746E-1,-1.0526316E-1,5.4545456E-1,-1.2E0,-2.2222222E-1,-1.85E0,-0E0,-1.2727273E0,1.5384616E-1,-2.2222222E-1,-1.3333334E0,-2.6086956E-1,-0E0,-1.5151515E0,-1.2E0,-2.6785713E-1,-1.2727273E0,-0E0,1.8803419E-1,-6.666667E-1,1E0,-6.666667E-1,-1.1764706E-1,7.755102E-1,-4E-1,1.5744681E0,-1.3333334E0,-4E-1,-2.2222222E-1,1E0,-7.092199E-2,6.3736266E-1,1.8181819E-1,-4.0987656E-1,-1.0169491E-1,-1E0,-1.6949153E-1,6.8613136E-1,-1.483871E0,-7.368421E-1,-6.666667E-1,8E-1,-1.3333334E0,2.857143E-1,-1.5897436E0,-5.714286E-1,5E-1,-1E0,7.692308E-1,-5.714286E-1,1.3333334E0,1.5384616E-1,1.1666666E0,2.2222222E-1,1.2E0,-4E-1,-0E0,-1.3846154E0,2.2222222E-1,-7.5E-1,8.5714287E-1,-6.666667E-1,1.5862069E0,4.6153846E-1,9.0909094E-1,-0E0,-4.6153846E-1,-1.5E0,-0E0,-1.3846154E0,-0E0,1.2E0,-1.1111112E0,1.8181819E-1,-1E0,4.6153846E-1,6.666667E-1,-8.8E-1,-6.666667E-1,-1.5354838E0,-1.2659177E0,-6.111111E-1,-8.949416E-1,5E-1,5E-1,-4.566929E-1,-1.0730159E0,-5.090909E-1,-9.0909094E-1,2E-1,-2.2222222E-1,-1.4526316E0,-1.2E0,5.964912E-1,-8E-1,-3.3613447E-2,4.1666666E-1,1.3333334E0,-1E0,2.2222222E-1,5.714286E-1,-1E0,-0E0,-1.1864407E0,-1.5384616E0,-3.3333334E-1,-1.1111112E0,4.6153846E-1,-6.666667E-1,6.666667E-1,-1.3333334E0,-4.6153846E-1,4E-1,-7.692308E-1,1.3793104E0,-0E0,9.0909094E-1,-5E-1,-6.25E-1,4.4444445E-1,-0E0,1.0769231E0,-6.666667E-1,-1.44E0,1.2608696E0,1.8181819E-1,-7.692308E-1,5E-1,-9.5652175E-1,5E-1,-1.3846154E0,-0E0,-6.666667E-1,1.0769231E0,1.3333334E0,4E-1,-1.1111112E0,5E-1,-1E0,6.666667E-1],"categories":[],"categories_nodes":[],"categories_segments":[],"categories_sizes":[],"default_left":[true,true,true,true,true,true,true,true,false,true,false,true,true,true,true,true,true,true,true,true,true,true,true,true,true,true,false,true,true,true,true,true,true,true,true,true,true,true,true,true,false,true,false,true,false,true,true,true,true,true,true,true,true,true,true,false,false,true,true,true,true,true,false,true,true,true,false,true,true,true,true,true,true,true,true,true,true,true,true,true,true,false,false,true,true,true,true,true,true,true,true,true,false,true,true,true,true,false,true,true,true,true,true,true,true,true,true,true,true,true,true,true,true,true,true,true,false,true,true,true,true,true,true,true,true,true,true,true,true,true,true,true,true,true,true,true,true,true,true,true,true,true,false,false,true,true,true,true,true,true,true,true,true,true,true,true,true,true,false,true,true,false,false,true,true,false,true,true,false,true,false,true,true,false,true,false,true,true,false,true,false,true,true,true,true,true,true,true,true,false,false,true,true,false,false,false,true,true,true,true,true,true,true,true,true,true,true,true,false,true,true,true,true,false,true,true,true,false,true,true,true,true,true,false,true,false,true,true,true,false,true,false,true,true,true,true,true,false,false,false,true,true,true,true,true,false,false,true,true,true,false,false,false,true,false,false,true,false,true,false,true,true,true,true,true,true,true,true,true,true,true,true,true,true,true,true,false,false,false,false,false,false,false,true,false,true,true,true,false,true,false,false,false,true,false,true,true,true,true,true,false,false,false,false,false,false,false,true,false,true,true,true,true,false,false,true,false,true,false,false,true,true,true,true,false,true,true,true,false,true,false,true,true,true,true,true,true,true,true,true,true,true,true,true,true,true,true,true,false,true,false,true,true,true,true,true,true,false,true,true,true,false,false,false,true,false,false,true,false,false,false,true,true,true,true,true,true,false,false,true,true,true,true,true,true,false,false,false,true,true,true,true,false,true,true,true,true,true,false,true,false,false,true,true,false,true,false,false,true,false,true,false,false,false,true,false,false,true,false,false,true,true,true,true,true,true,true,true,true,true,true,false,false,false,false,true,true,true,true,true,false,true,true,true,true,false,false,true,false,true,false,true,false,false,true,false,true,true,true,false,false,false,true,true,false,true,true,true,true,true,true,true,false,false,false,true,false,true,true,true,true,true,true,false,true,true,false,true,false,true,false,false,false,false,false,true,true,true,false,true,true,true,true,true,true,false,false,false,false,true,false,true,true,true,false,true,true,false,false,true,true,true,true,true,true,false,false,true,true,true,false,true,true,true,true,true,true,true,true,false,false,false,false,true,true,true,false,true,true,true,true,true,true,true,false,true,true,true,false,true,false,false,false,false,false,true,false,true,false,true,true,false,true,false,true,false,true,false,true,false,true,true,true,true,false,false,true,true,false,true,false,true,true,true,true,true,true,false,false,true,false,false,false,true,true,false,false,false,false,false,false,true,false,false,false,false,false,true,false,false,false,true,true,true,true,true,true,true,true,true,true,true,true,true,true,true,true,false,false,true,false,false,false,false,false,true,true,false,false,false,true,true,false,true,true,true,true,true,true,true,true,false,false,true,false,true,true,false,false,false,false,true,true,false,false,false,false,false,false,true,true,true,true,true,false,true,true,true,true,false,true,false,false,false,false,false,false,true,true,false,true,true,true,true,false,true,true,true,false,true,true,false,false,true,true,true,true,true,true,true,true,true,true,true,true,false,true,true,false,true,true,false,false,true,true,false,false,false,true,true,true,true,true,false,true,false,false,true,false,true,false,true,true,true,true,false,false,false,true,false,false,false,false,true,true,false,false,false,true,true,false,false,false,false,true,true,true,true,true,true,true,true,false,true,true,true,true,true,true,true,true,true,false,false,false,false,true,false,false,false,false,false,false,true,false,true,true,true,false,true,true,true,false,false,false,false,true,true,true,true,false,true,false,true,true,false,false,false,false,true,false,true,false,false,true,true,false,true,false,false,false,true,false,true,true,true,true,false,false,true,true,false,false,true,true,false,false,true,true,true,true,true,true,true,true,true,true,true,true,true,true,false,true,true,true,false,true,true,true,true,true,true,true,true,false,false,false,false,true,true,false,true,true,true,true,false,false,true,false,true,false,false,true,true,false,false,true,false,false,true,false,true,false,true,false,false,false,false,true,true,true,false,true,true,true,true,true,true,true,false,false,true,true,true,true,true,true,true,true,false,true,false,true,false,false,true,true,true,true,true,false,true,true,true,true,false,false,true,true,true,false,false,false,true,true,false,false,true,true,false,false,true,true,false,false,false,true,true,true,true,true,false,false,true,false,true,true,true,true,true,true,false,false,true,false,false,true,false,true,false,false,true,true,false,false,true,true,true,true,true,true,true,true,true,false,true,false,false,false,true,true,true,false,true,true,true,true,false,false,true,true,false,false,false,false,false,false,false,true,false,false,true,false,true,true,false,false,true,true,true,false,false,false,true,true,true,true,false,false,false,true,true,true,false,true,true,true,true,false,false,true,false,false,true,false,true,true,true,true,false,false,false,true,false,true,true,true,true,true,false,true,false,false,true,false,false,false,false,false,true,true,false,false,false,false,true,true,false,true,false,false,false,false,true,true,false,false,true,false,true,false,true,true,true,true,true,true,true,false,true,true,true,true,true,true,true,true,true,true,true,true,true,true,true,true,true,true,true,true,true,true,true,true,true,true,true,true,true,true,true,true,true,true,true,true,false,true,true,true,false,false,true,true,true,true,false,false,false,false,true,false,true,true,true,true,true,false,true,false,false,true,false,false,false,false,false,false,true,true,false,true,false,false,false,true,true,true,false,false,true,false,false,true,false,false,true,true,false,false,false,false,true,true,true,false,false,true,true,false,false,true,true,true,true,false,true,true,true,true,false,true,false,true,true,true,true,false,true,true,true,true,true,false,false,false,true,false,true,true,false,true,true,false,true,true,false,false,false,false,false,false,true,true,false,false,false,true,false,false,true,true,true,false,true,true,false,false,true,false,false,false,false,false,false,true,true,false,true,true,false,true,false,false,true,true,true,true,false,false,false,false,true,true,false,true,false,false,true,false,false,true,true,true,true,true,true,true,true,true,false,true,false,false,true,true,false,false,true,true,true,false,false,true,true,true,true,true,true,true,true,true,false,true,true,true,true,true,true,false,true,true,true,true,true,true,false,false,false,false,true,true,true,true,true,false,false,true,false,false,true,true,true,false,false,true,true,true,true,false,true,true,false,false,false,false,false,false,false,false,false,false,false,false,true,true,false,true,false,false,false,true,true,true,false,false,false,false,false,false,true,true,true,true,false,false,true,true,true,true,false,true,false,true,false,false,true,false,true,false,true,false,false,false,true,true,true,true,false,true,false,false,true,false,true,true,true,true,true,true,true,false,true,false,true,true,true,true,true,true,true,true,true,true,true,false,true,true,false,true,true,true,true,true,true,true,true,false,true,true,true,false,true,false,true,false,false,true,true,true,true,true,true,false,true,false,true,true,true,false,false,false,false,true,true,true,false,false,false,false,false,false,true,false,false,false,true,false,false,false,true,true,true,true,true,true,true,true,false,false,true,false,false,false,false,false,false,false,false,false,true,false,false,false,true,true,false,true,false,false,false,false,false,true,false,false,false,true,true,true,false,false,true,false,false,false,false,false,false,false,false,true,false,true,false,true,true,true,false,false,false,true,false,false,true,true,false,true,false,false,false,true,false,false,false,false,false,false,true,false,false,true,false,false,true,true,false,true,false,true,true,true,false,false,true,false,true,true,true,false,true,false,false,true,true,true,false,true,true,true,false,false,true,false,true,false,true,true,true,true,true,true,false,false,true,true,true,true,true,false,false,false,false,true,true,true,true,false,false,false,false,true,false,true,false,false,true,true,false,false,true,false,true,true,true,true,true,true,true,true,true,true,false,true,true,false,false,false,false,false,true,false,true,true,false,false,true,false,true,true,true,true,true,true,true,true,true,true,true,true,true,true,true,true,true,true,true,true,false,true,false,true,false,true,true,true,false,false,true,false,true,false,false,false,true,false,false,true,true,false,false,false,true,true,false,true,true,true,true,false,true,false,true,false,false,true,false,false,false,true,true,true,true,true,true,false,true,true,false,false,true,false,false,false,false,true,false,true,true,false,true,false,true,true,false,true,false,false,true,true,true,false,true,true,true,false,false,false,true,true,true,false,true,false,true,true,false,true,false,true,true,false,true,true,false,true,false,false,false,false,true,true,true,true,true,true,true,true,true,false,false,true,true,true,true,true,true,true,false,true,true,true,true,true,true,true,true,true,true,true,false,false,true,false,true,true,true,true,false,false,true,false,true,true,false,true,true,true,false,false,false,false,false,true,true,true,true,true,false,true,false,true,false,false,true,true,false,true,true,false,true,true,true,false,true,true,true,true,true,true,true,true,true,true,false,false,false,true,true,true,false,false,false,true,false,true,true,false,true,true,true,false,true,true,true,true,false,false,false,false,true,false,false,false,false,false,false,false,false,false,false,false,false,false,false,false,false,false,false,false,false,false,false,false,false,false,false,false,false,false,false,false,false,false,false,false,false,false,false,false,false,false,false,false,false,false,false,false,false,false,false,false,false,false,false,false,false,false,false,false,false,false,false,false,false,false,false,false,false,false,false,false,false,false,false,false,false,false,false,false,false,false,false,false,false,false,false,false,false,false,false,false,false,false,false,false,false,false,false,false,false,false,false,false,false,false,false,false,false,false,false,false,false,false,false,false,false,false,false,false,false,false,false,false,false,false,false,false,false,false,false,false,false,false,false,false,false,false,false,false,false,false,false,false,false,false,false,false,false,false,false,false,false,false,false,false,false,false,false,false,false,false,false,false,false,false,false,false,false,false,false,false,false,false,false,false,false,false,false,false,false,false,false,false,false,false,false,false,false,false,false,false,false,false,false,false,false,false,false,false,false,false,false,false,false,false,false,false,false,false,false,false,false,false,false,false,false,false,false,false,false,false,false,false,false,false,false,false,false,false,false,false,false,false,false,false,false,false,false,false,false,false,false,false,false,false,false,false,false,false,false,false,false,false,false,false,false,false,false,false,false,false,false,false,false,false,false,false,false,false,false,false,false,false,false,false,false,false,false,false,false,false,false,false,false,false,false,false,false,false,false,false,false,false,false,false,false,false,false,false,false,false,false,false,false,false,false,false,false,false,false,false,false,false,false,false,false,false,false,false,false,false,false,false,false,false,false,false,false,false,false,false,false,false,false,false,false,false,false,false,false,false,false,false,false,false,false,false,false,false,false,false,false,false,false,false,false,false,false,false,false,false,false,false,false,false,false,false,false,false,false,false,false,false,false,false,false,false,false,false,false,false,false,false,false,false,false,false,false,false,false,false,false,false,false,false,false,false,false,false,false,false,false,false,false,false,false,false,false,false,false,false,false,false,false,false,false,false,false,false,false,false,false,false,false,false,false,false,false,false,false,false,false,false,false,false,false,false,false,false,false,false,false,false,false,false,false,false,false,false,false,false,false,false,false,false],"id":0,"left_children":[1,3,5,7,9,11,13,15,-1,17,-1,19,21,23,25,27,29,31,33,35,37,39,41,43,45,47,-1,49,51,53,55,57,59,61,63,65,67,69,71,73,-1,75,-1,77,-1,79,81,83,85,87,89,91,93,95,97,-1,-1,99,101,103,105,107,-1,109,111,113,-1,115,117,119,121,123,125,127,129,131,133,135,137,139,141,-1,-1,143,145,147,149,151,153,155,157,159,-1,161,163,165,167,-1,169,171,173,175,177,179,181,183,185,187,189,191,193,195,197,199,201,203,-1,205,207,209,211,213,215,217,219,221,223,225,227,229,231,233,235,237,239,241,243,245,247,249,251,253,-1,-1,255,257,259,261,263,265,267,269,271,273,275,277,279,281,-1,283,285,-1,-1,287,289,-1,291,293,-1,295,-1,297,299,-1,301,-1,303,305,-1,307,-1,309,311,313,315,317,319,321,323,-1,-1,325,327,-1,-1,-1,329,331,333,335,337,339,341,343,345,347,349,351,-1,353,355,357,359,-1,361,363,365,-1,367,369,371,373,375,-1,377,-1,379,381,383,-1,385,-1,387,389,391,393,395,-1,-1,-1,397,399,401,403,405,-1,-1,407,409,411,-1,-1,-1,413,-1,-1,415,-1,417,-1,419,421,423,425,427,429,431,433,435,437,439,441,443,445,447,449,-1,-1,-1,-1,-1,-1,-1,451,-1,453,455,457,-1,459,-1,-1,-1,461,-1,463,465,467,469,471,-1,-1,-1,-1,-1,-1,-1,473,-1,475,477,479,481,-1,-1,483,-1,485,-1,-1,487,489,491,493,-1,495,497,499,-1,501,-1,503,505,507,509,511,513,515,517,519,521,523,525,527,529,531,533,535,-1,537,-1,539,541,543,545,547,549,-1,551,553,555,-1,-1,-1,557,-1,-1,559,-1,-1,-1,561,563,565,567,569,571,-1,-1,573,575,577,579,581,583,-1,-1,-1,585,587,589,591,-1,593,595,597,599,601,-1,603,-1,-1,605,607,-1,609,-1,-1,611,-1,613,-1,-1,-1,615,-1,-1,617,-1,-1,619,621,623,625,627,629,631,633,635,637,639,-1,-1,-1,-1,641,643,645,647,649,-1,651,653,655,657,-1,-1,659,-1,661,-1,663,-1,-1,665,-1,667,669,671,-1,-1,-1,673,675,-1,677,679,681,683,685,687,689,-1,-1,-1,691,-1,693,695,697,699,701,703,-1,705,707,-1,709,-1,711,-1,-1,-1,-1,-1,713,715,717,-1,719,721,723,725,727,729,-1,-1,-1,-1,731,-1,733,735,737,-1,739,741,-1,-1,743,745,747,749,751,753,-1,-1,755,757,759,-1,761,763,765,767,769,771,773,775,-1,-1,-1,-1,777,779,781,-1,783,785,787,789,791,793,795,-1,797,799,801,-1,803,-1,-1,-1,-1,-1,805,-1,807,-1,809,811,-1,813,-1,815,-1,817,-1,819,-1,821,823,825,827,-1,-1,829,831,-1,833,-1,835,837,839,841,843,845,-1,-1,847,-1,-1,-1,849,851,-1,-1,-1,-1,-1,-1,853,-1,-1,-1,-1,-1,855,-1,-1,-1,857,859,861,863,865,867,869,871,873,875,877,879,881,883,885,887,-1,-1,889,-1,-1,-1,-1,-1,891,893,-1,-1,-1,895,897,-1,899,901,903,905,907,909,911,913,-1,-1,915,-1,917,919,-1,-1,-1,-1,921,923,-1,-1,-1,-1,-1,-1,925,927,929,931,933,-1,935,937,939,941,-1,943,-1,-1,-1,-1,-1,-1,945,947,-1,949,951,953,955,-1,957,959,961,-1,963,965,-1,-1,967,969,971,973,975,977,979,981,983,985,987,989,-1,991,993,-1,995,997,-1,-1,999,1001,-1,-1,-1,1003,1005,1007,1009,1011,-1,1013,-1,-1,1015,-1,1017,-1,1019,1021,1023,1025,-1,-1,-1,1027,-1,-1,-1,-1,1029,1031,-1,-1,-1,1033,1035,-1,-1,-1,-1,1037,1039,1041,1043,1045,1047,1049,1051,-1,1053,1055,1057,1059,1061,1063,1065,1067,1069,-1,-1,-1,-1,1071,-1,-1,-1,-1,-1,-1,1073,-1,1075,1077,1079,-1,1081,1083,1085,-1,-1,-1,-1,1087,1089,1091,1093,-1,1095,-1,1097,1099,-1,-1,-1,-1,1101,-1,1103,-1,-1,1105,1107,-1,1109,-1,-1,-1,1111,-1,1113,1115,1117,1119,-1,-1,1121,1123,-1,-1,1125,1127,-1,-1,1129,1131,1133,1135,1137,1139,1141,1143,1145,1147,1149,1151,1153,1155,-1,1157,1159,1161,-1,1163,1165,1167,1169,1171,1173,1175,1177,-1,-1,-1,-1,1179,1181,-1,1183,1185,1187,1189,-1,-1,1191,-1,1193,-1,-1,1195,1197,-1,-1,1199,-1,-1,1201,-1,1203,-1,1205,-1,-1,-1,-1,1207,1209,1211,-1,1213,1215,1217,1219,1221,1223,1225,-1,-1,1227,1229,1231,1233,1235,1237,1239,1241,-1,1243,-1,1245,-1,-1,1247,1249,1251,1253,1255,-1,1257,1259,1261,1263,-1,-1,1265,1267,1269,-1,-1,-1,1271,1273,-1,-1,1275,1277,-1,-1,1279,1281,-1,-1,-1,1283,1285,1287,1289,1291,-1,-1,1293,-1,1295,1297,1299,1301,1303,1305,-1,-1,1307,-1,-1,1309,-1,1311,-1,-1,1313,1315,-1,-1,1317,1319,1321,1323,1325,1327,1329,1331,1333,-1,1335,-1,-1,-1,1337,1339,1341,-1,1343,1345,1347,1349,-1,-1,1351,1353,-1,-1,-1,-1,-1,-1,-1,1355,-1,-1,1357,-1,1359,1361,-1,-1,1363,1365,1367,-1,-1,-1,1369,1371,1373,1375,-1,-1,-1,1377,1379,1381,-1,1383,1385,1387,1389,-1,-1,1391,-1,-1,1393,-1,1395,1397,1399,1401,-1,-1,-1,1403,-1,1405,1407,1409,1411,1413,-1,1415,-1,-1,1417,-1,-1,-1,-1,-1,1419,1421,-1,-1,-1,-1,1423,1425,-1,1427,-1,-1,-1,-1,1429,1431,-1,-1,1433,-1,1435,-1,1437,1439,1441,1443,1445,1447,1449,-1,1451,1453,1455,1457,1459,1461,1463,1465,1467,1469,1471,1473,1475,1477,1479,1481,1483,1485,1487,1489,1491,1493,1495,1497,1499,1501,1503,1505,1507,1509,1511,1513,1515,1517,1519,1521,-1,1523,1525,1527,-1,-1,1529,1531,1533,1535,-1,-1,-1,-1,1537,-1,1539,1541,1543,1545,1547,-1,1549,-1,-1,1551,-1,-1,-1,-1,-1,-1,1553,1555,-1,1557,-1,-1,-1,1559,1561,1563,-1,-1,1565,-1,-1,1567,-1,-1,1569,1571,-1,-1,-1,-1,1573,1575,1577,-1,-1,1579,1581,-1,-1,1583,1585,1587,1589,-1,1591,1593,1595,1597,-1,1599,-1,1601,1603,1605,1607,-1,1609,1611,1613,1615,1617,-1,-1,-1,1619,-1,1621,1623,-1,1625,1627,-1,1629,1631,-1,-1,-1,-1,-1,-1,1633,1635,-1,-1,-1,1637,-1,-1,1639,1641,1643,-1,1645,1647,-1,-1,1649,-1,-1,-1,-1,-1,-1,1651,1653,-1,1655,1657,-1,1659,-1,-1,1661,1663,1665,1667,-1,-1,-1,-1,1669,1671,-1,1673,-1,-1,1675,-1,-1,1677,1679,1681,1683,1685,1687,1689,1691,1693,-1,1695,-1,-1,1697,1699,-1,-1,1701,1703,1705,-1,-1,1707,1709,1711,1713,1715,1717,1719,1721,1723,-1,1725,1727,1729,1731,1733,1735,-1,1737,1739,1741,1743,1745,1747,-1,-1,-1,-1,1749,1751,1753,1755,1757,-1,-1,1759,-1,-1,1761,1763,1765,-1,-1,1767,1769,1771,1773,-1,1775,1777,-1,-1,-1,-1,-1,-1,-1,-1,-1,-1,-1,-1,1779,1781,-1,1783,-1,-1,-1,1785,1787,1789,-1,-1,-1,-1,-1,-1,1791,1793,1795,1797,-1,-1,1799,1801,1803,1805,-1,1807,-1,1809,-1,-1,1811,-1,1813,-1,1815,-1,-1,-1,1817,1819,1821,1823,-1,1825,-1,-1,1827,-1,1829,1831,1833,1835,1837,1839,1841,-1,1843,-1,1845,1847,1849,1851,1853,1855,1857,1859,1861,1863,1865,-1,1867,1869,-1,1871,1873,1875,1877,1879,1881,1883,1885,-1,1887,1889,1891,-1,1893,-1,1895,-1,-1,1897,1899,1901,1903,1905,1907,-1,1909,-1,1911,1913,1915,-1,-1,-1,-1,1917,1919,1921,-1,-1,-1,-1,-1,-1,1923,-1,-1,-1,1925,-1,-1,-1,1927,1929,1931,1933,1935,1937,1939,1941,-1,-1,1943,-1,-1,-1,-1,-1,-1,-1,-1,-1,1945,-1,-1,-1,1947,1949,-1,1951,-1,-1,-1,-1,-1,1953,-1,-1,-1,1955,1957,1959,-1,-1,1961,-1,-1,-1,-1,-1,-1,-1,-1,1963,-1,1965,-1,1967,1969,1971,-1,-1,-1,1973,-1,-1,1975,1977,-1,1979,-1,-1,-1,1981,-1,-1,-1,-1,-1,-1,1983,-1,-1,1985,-1,-1,1987,1989,-1,1991,-1,1993,1995,1997,-1,-1,1999,-1,2001,2003,2005,-1,2007,-1,-1,2009,2011,2013,-1,2015,2017,2019,-1,-1,2021,-1,2023,-1,2025,2027,2029,2031,2033,2035,-1,-1,2037,2039,2041,2043,2045,-1,-1,-1,-1,2047,2049,2051,2053,-1,-1,-1,-1,2055,-1,2057,-1,-1,2059,2061,-1,-1,2063,-1,2065,2067,2069,2071,2073,2075,2077,2079,2081,2083,-1,2085,2087,-1,-1,-1,-1,-1,2089,-1,2091,2093,-1,-1,2095,-1,2097,2099,2101,2103,2105,2107,2109,2111,2113,2115,2117,2119,2121,2123,2125,2127,2129,2131,2133,2135,-1,2137,-1,2139,-1,2141,2143,2145,-1,-1,2147,-1,2149,-1,-1,-1,2151,-1,-1,2153,2155,-1,-1,-1,2157,2159,-1,2161,2163,2165,2167,-1,2169,-1,2171,-1,-1,2173,-1,-1,-1,2175,2177,2179,2181,2183,2185,-1,2187,2189,-1,-1,2191,-1,-1,-1,-1,2193,-1,2195,2197,-1,2199,-1,2201,2203,-1,2205,-1,-1,2207,2209,2211,-1,2213,2215,2217,-1,-1,-1,2219,2221,2223,-1,2225,-1,2227,2229,-1,2231,-1,2233,2235,-1,2237,2239,-1,2241,-1,-1,-1,-1,2243,2245,2247,2249,2251,2253,2255,2257,2259,-1,-1,2261,2263,2265,2267,2269,2271,2273,-1,2275,2277,2279,2281,2283,2285,2287,2289,2291,2293,2295,-1,-1,2297,-1,2299,2301,2303,2305,-1,-1,2307,-1,2309,2311,-1,2313,2315,2317,-1,-1,-1,-1,-1,2319,2321,2323,2325,2327,-1,2329,-1,2331,-1,-1,2333,2335,-1,2337,2339,-1,2341,2343,2345,-1,2347,2349,2351,2353,2355,2357,2359,2361,2363,2365,-1,-1,-1,2367,2369,2371,-1,-1,-1,2373,-1,2375,2377,-1,2379,2381,2383,-1,2385,2387,2389,2391,-1,-1,-1,-1,2393,-1,-1,-1,-1,-1,-1,-1,-1,-1,-1,-1,-1,-1,-1,-1,-1,-1,-1,-1,-1,-1,-1,-1,-1,-1,-1,-1,-1,-1,-1,-1,-1,-1,-1,-1,-1,-1,-1,-1,-1,-1,-1,-1,-1,-1,-1,-1,-1,-1,-1,-1,-1,-1,-1,-1,-1,-1,-1,-1,-1,-1,-1,-1,-1,-1,-1,-1,-1,-1,-1,-1,-1,-1,-1,-1,-1,-1,-1,-1,-1,-1,-1,-1,-1,-1,-1,-1,-1,-1,-1,-1,-1,-1,-1,-1,-1,-1,-1,-1,-1,-1,-1,-1,-1,-1,-1,-1,-1,-1,-1,-1,-1,-1,-1,-1,-1,-1,-1,-1,-1,-1,-1,-1,-1,-1,-1,-1,-1,-1,-1,-1,-1,-1,-1,-1,-1,-1,-1,-1,-1,-1,-1,-1,-1,-1,-1,-1,-1,-1,-1,-1,-1,-1,-1,-1,-1,-1,-1,-1,-1,-1,-1,-1,-1,-1,-1,-1,-1,-1,-1,-1,-1,-1,-1,-1,-1,-1,-1,-1,-1,-1,-1,-1,-1,-1,-1,-1,-1,-1,-1,-1,-1,-1,-1,-1,-1,-1,-1,-1,-1,-1,-1,-1,-1,-1,-1,-1,-1,-1,-1,-1,-1,-1,-1,-1,-1,-1,-1,-1,-1,-1,-1,-1,-1,-1,-1,-1,-1,-1,-1,-1,-1,-1,-1,-1,-1,-1,-1,-1,-1,-1,-1,-1,-1,-1,-1,-1,-1,-1,-1,-1,-1,-1,-1,-1,-1,-1,-1,-1,-1,-1,-1,-1,-1,-1,-1,-1,-1,-1,-1,-1,-1,-1,-1,-1,-1,-1,-1,-1,-1,-1,-1,-1,-1,-1,-1,-1,-1,-1,-1,-1,-1,-1,-1,-1,-1,-1,-1,-1,-1,-1,-1,-1,-1,-1,-1,-1,-1,-1,-1,-1,-1,-1,-1,-1,-1,-1,-1,-1,-1,-1,-1,-1,-1,-1,-1,-1,-1,-1,-1,-1,-1,-1,-1,-1,-1,-1,-1,-1,-1,-1,-1,-1,-1,-1,-1,-1,-1,-1,-1,-1,-1,-1,-1,-1,-1,-1,-1,-1,-1,-1,-1,-1,-1,-1,-1,-1,-1,-1,-1,-1,-1,-1,-1,-1,-1,-1,-1,-1,-1,-1,-1,-1,-1,-1,-1,-1,-1,-1,-1,-1,-1,-1,-1,-1,-1,-1,-1,-1,-1,-1,-1,-1,-1,-1,-1,-1,-1,-1,-1,-1,-1,-1,-1,-1,-1,-1,-1,-1,-1,-1,-1,-1,-1,-1,-1,-1,-1,-1,-1,-1,-1,-1,-1,-1,-1,-1,-1,-1,-1,-1,-1,-1,-1,-1,-1,-1,-1,-1,-1,-1,-1,-1,-1,-1],"loss_changes":[3.3052546E3,2.6658838E2,3.3613835E3,4.6236816E1,1.1216211E2,1.7789104E3,5.208762E2,2.305835E1,0E0,9.11933E1,0E0,8.629874E2,1.6561041E2,2.5176758E1,2.8029236E2,2.1956787E1,4.805298E0,1.9340851E2,1.5857849E1,6.7033203E2,3.1773477E2,1.0081909E1,3.3066994E1,1.4206665E1,2.3615723E0,2.1986438E2,0E0,2.2766235E1,3.756958E0,2.7149658E0,2.9230769E0,2.1569E1,4.9209156E1,6.0979614E0,1.3860779E1,4.9251697E2,2.3402856E2,3.1326935E1,2.0801996E2,9.415405E0,0E0,2.2721855E1,0E0,5.235901E0,0E0,8.713379E-1,5.5639095E0,4.494507E0,1.9321893E2,1.9443542E1,1.6767273E0,2.7739868E0,4.685135E0,2.61969E0,2.022705E0,0E0,0E0,2.3495209E1,5.244444E0,2.1478819E1,1.5536217E1,2.2071533E0,0E0,1.8590607E1,9.572266E0,3.3298248E2,0E0,5.7364746E1,1.0515728E2,3.1632645E1,6.1690956E1,1.1906793E2,6.245299E1,3.9805908E0,1.1442566E1,1.6067635E1,7.8083763E0,4.069916E0,5.7664795E0,1.2478027E0,1.8899994E0,0E0,0E0,9.5251465E-1,2.9516144E0,1.1428546E2,2.7625092E1,1.7909363E1,4.604551E1,6.465454E-1,5.2034187E0,9.807129E-1,0E0,3.6E0,2.5987701E0,6.679077E-1,3.5720654E0,0E0,3.0770874E0,1.2912598E1,1.3085944E1,1.170635E0,3.52381E0,1.40545225E1,1.3166065E1,3.628376E0,1.941856E1,2.0542908E0,2.1666667E0,9.13858E0,5.1111126E-1,2.2772827E0,9.40863E0,1.4316849E2,1.737699E2,3.813916E1,0E0,3.96423E1,1.4474869E0,2.5848991E1,1.1414391E1,6.4543304E0,5.955353E0,4.2737244E1,1.0600464E1,2.2165873E1,3.9698273E1,6.3685303E0,4.406668E1,4.2470016E0,6.2582664E0,1.0030931E1,1.1673659E1,7.046585E-1,6.133333E0,2.7137756E0,3.185965E0,3.6E0,3.5805054E0,9.145511E0,2.5891113E-1,5.3166666E0,0E0,0E0,2.2067099E0,1.1730766E0,2.9122806E0,4.658484E1,2.4339901E1,6.487295E0,1.1439301E1,1.413501E1,3.3017715E1,6.7829895E0,1.9499842E1,1.867981E-1,1.1999998E0,1.3011551E0,0E0,1.8283123E1,1.267273E0,0E0,0E0,3.211975E0,6.008421E0,0E0,1.0158732E0,5.8571243E-1,0E0,1.5553436E0,0E0,1.0258972E1,3.8477173E0,0E0,5.491948E0,0E0,3.5833335E0,8.3918095E-1,0E0,3.7112598E0,0E0,4.373626E0,1.41215515E1,9E-1,3.519596E0,1.5428562E0,1.3216869E1,1.2878418E-2,2.6131763E0,0E0,0E0,7.6841736E0,3.5179176E0,0E0,0E0,0E0,1.4814148E0,5.4312134E0,3.9391725E0,8.247382E1,7.5382675E1,5.8326477E1,1.7943317E2,3.8019844E1,2.2072266E1,1.759183E1,1.914273E1,4.056795E0,0E0,4.1544174E1,3.6742676E1,7.831116E0,1.2435455E1,0E0,1.178744E0,1.364151E0,4.75E0,0E0,2.8598541E1,6.5149794E0,7.6359386E0,1.3626516E1,1.1379341E1,0E0,7.63871E0,0E0,5.8623657E0,2.0164572E1,7.253937E0,0E0,1E0,0E0,5.833451E0,4.432701E0,1.0983066E1,7.686125E0,1.0948582E1,0E0,0E0,0E0,1.1692307E0,1.7593994E0,4.846377E0,2.0988836E0,3.027751E0,0E0,0E0,2.390625E0,5.782857E0,2.65098E0,0E0,0E0,0E0,2.0833333E0,0E0,0E0,3.3459594E0,0E0,3.2686281E0,0E0,6.8771935E-1,4.2609207E1,2.5658417E1,1.94887E1,7.2014246E0,6.0368085E0,7.5E-1,1.7053223E-1,6.2065363E0,2.814087E0,1.7857134E1,3.6805878E0,1.4547554E1,6.792929E-1,1.3060913E0,5.490196E-1,0E0,0E0,0E0,0E0,0E0,0E0,0E0,1.7493477E0,0E0,1.1484375E0,6.8622923E0,2.59552E-1,0E0,2.6234818E-1,0E0,0E0,0E0,1.5999999E0,0E0,5.4965043E-1,1.4283447E0,1.0354401E1,1.5139046E1,2.6641846E0,0E0,0E0,0E0,0E0,0E0,0E0,0E0,1.7808704E0,0E0,2.8937197E0,3.107143E0,7.8750916E0,6.8183055E0,0E0,0E0,3.8878098E0,0E0,1.78022E0,0E0,0E0,9.656639E0,1.3787842E0,1.2413793E0,1.6982455E0,0E0,2.9089203E0,1.1144749E1,3.8232746E0,0E0,8.9193726E-1,0E0,3.3188324E0,1.6666666E-1,3.3210528E0,3.4725275E0,1.9449211E1,1.92845E1,6.758782E1,1.905365E-1,1.7011902E1,1.0979333E1,1.4968304E2,4.5159912E-1,2.680519E0,7.7813187E0,2.3728027E1,2.449707E0,4.0761905E0,0E0,1.5476538E1,0E0,1.2230167E0,9E-1,2.023369E1,3.1298214E1,5.0837116E1,3.1087097E1,0E0,9.238624E0,6.9612885E-1,2.8666666E0,0E0,0E0,0E0,4.083484E0,0E0,0E0,2.7141235E1,0E0,0E0,0E0,1.0666656E0,1.2745098E0,1.2408688E1,9.306818E0,1.2336152E1,3.8147573E0,0E0,0E0,6.600357E0,2.9708862E0,1.1826372E0,7.5734987E0,6.4795074E0,2.8285522E0,0E0,0E0,0E0,5.3392544E0,4.8910255E0,3.989305E0,8.794239E0,0E0,5.894253E0,8.524458E0,3.0504208E0,4.128342E0,1.3333333E0,0E0,7.914429E-1,0E0,0E0,2.172727E0,6.666666E-1,0E0,1.4984522E0,0E0,0E0,2.4090576E0,0E0,4E0,0E0,0E0,0E0,1.6666666E-1,0E0,0E0,2.2578754E0,0E0,0E0,4.4444442E-1,3.8846497E1,2.9749651E1,4.097931E1,2.3912743E1,1.9779564E1,1.2521906E1,8.623611E0,9.365815E0,2.9571428E0,2.3985605E0,0E0,0E0,0E0,0E0,9.777775E-1,3.880342E0,2.2086792E0,2.5111113E0,1.0550663E1,0E0,5.2246094E-2,2.9775028E0,1.5208628E1,3.8538818E0,0E0,0E0,2.9612904E0,0E0,2.287581E-1,0E0,2.722206E-1,0E0,0E0,6.5739746E0,0E0,8.253969E-1,2.7763367E-2,1.3641968E0,0E0,0E0,0E0,1E0,1.4230769E0,0E0,8.047638E-1,3.638214E0,1.1807251E1,4.5818176E0,9.0518265E0,6.2845693E0,9.724884E-1,0E0,0E0,0E0,1.217391E0,0E0,2.5E0,2.3156567E0,5.4085236E0,6.9317293E0,6.853021E0,2.1307693E0,0E0,3.2051468E-1,1.2518635E0,0E0,8.287024E0,0E0,4.0518217E0,0E0,0E0,0E0,0E0,0E0,5.897461E0,3.7506485E0,6.367609E0,0E0,5.4341145E0,1.8233004E0,7.482605E-1,1.3571429E0,5.612343E0,3.2021523E0,0E0,0E0,0E0,0E0,9.0756273E-1,0E0,5.2184563E0,1.4085974E1,1.1130127E1,0E0,6.0427612E1,2.184272E1,0E0,0E0,2.2326511E1,8.090454E0,1.7044973E1,3.3883448E0,4.048442E1,1.1424597E2,0E0,0E0,1.1048994E0,1.6857142E0,2.9230769E0,0E0,1.5233618E1,1.998767E1,3.287879E0,4.4714355E-1,6.092307E0,6.060606E-1,1.1715296E1,2.3363266E1,0E0,0E0,0E0,0E0,1.4673224E1,9.299053E0,2.5007183E1,0E0,2.7481705E1,1.2002789E1,2.429115E1,1.7239914E1,4.034737E0,3.966137E0,1.5544128E-1,0E0,3.0714288E0,6.3333335E0,9E-1,0E0,4.4065247E0,0E0,0E0,0E0,0E0,0E0,4.410412E0,0E0,1.13951235E1,0E0,7.9441566E0,1.4833664E1,0E0,1.2000008E0,0E0,5.1495266E0,0E0,2.8797607E0,0E0,1.2652845E0,0E0,4.8242435E0,3.2776794E0,2.3593583E0,1.316742E0,0E0,0E0,1.5944834E0,4.6111107E0,0E0,3.944941E0,0E0,3.634286E0,6.8771935E-1,6.060606E-1,8.0877733E-1,1.781352E1,4.9530525E0,0E0,0E0,1.4660635E0,0E0,0E0,0E0,7.866211E-1,1.8073578E0,0E0,0E0,0E0,0E0,0E0,0E0,1.4780273E0,0E0,0E0,0E0,0E0,0E0,5.3418803E-1,0E0,0E0,0E0,2.2662079E1,2.611876E1,1.7895386E1,1.0801482E1,8.41468E0,1.3278198E1,8.328063E0,7.1085663E0,1.3731052E1,5.361164E0,8.244898E0,1.5032183E1,5.395464E0,2.7911549E0,7.632847E-1,4.254135E0,0E0,0E0,3.4945068E0,0E0,0E0,0E0,0E0,0E0,1.1717733E1,1.6435547E0,0E0,0E0,0E0,8.547008E-1,2.443719E0,0E0,2.239088E0,3.1777775E0,2.6233168E1,9.2380905E-1,1.001854E0,4.835165E0,3.666628E0,2.153614E0,0E0,0E0,6.666666E-1,0E0,4.136098E0,6.6342163E-1,0E0,0E0,0E0,0E0,2.2290802E-1,3.154706E0,0E0,0E0,0E0,0E0,0E0,0E0,7.802766E0,2.7699738E0,1.0892525E0,1.2135814E1,4.8381653E0,0E0,1.1010195E1,5.102455E0,3.6444445E0,4.65809E0,0E0,2.3111112E0,0E0,0E0,0E0,0E0,0E0,0E0,7.21535E0,1.4942513E0,0E0,6.619658E0,1.0789565E1,6.562248E0,2.7515152E0,0E0,6.6207504E-1,1.3102565E0,2.9270802E0,0E0,3.7929296E0,4.4444442E-1,0E0,0E0,2.4832458E0,4.19693E-2,2.028572E0,4.5454545E0,3.4983616E0,5.4522076E0,2.1128204E0,4.971676E-1,2.430206E0,2.1822224E0,6.10672E-1,1.2257767E0,0E0,1.75E0,3.286972E-1,0E0,2.9565217E0,1.0102329E0,0E0,0E0,2.0059624E0,1.1911111E1,0E0,0E0,0E0,3.7236023E-1,1.7611389E0,5.1200954E1,3.586322E1,5.081482E0,0E0,2.4836594E1,0E0,0E0,1.2429664E0,0E0,4.1906996E0,0E0,9.189747E0,1.1110037E1,1.1421543E2,4.222522E1,0E0,0E0,0E0,2.1142857E0,0E0,0E0,0E0,0E0,6.816162E0,1.26409445E1,0E0,0E0,0E0,1.0285714E0,1.4188035E0,0E0,0E0,0E0,0E0,9.42107E0,1.9797983E0,7.1094627E0,1.406242E1,2.1232952E1,7.4474525E0,5.7130127E0,1.0979757E0,0E0,2.6707714E1,1.1331501E1,6E-1,3.863617E0,1.1286091E1,6.349802E0,3.4536713E1,1.455291E1,4.8757896E0,0E0,0E0,0E0,0E0,1.7777779E0,0E0,0E0,0E0,0E0,0E0,0E0,4.487662E0,0E0,5.271589E0,1.1161728E0,7.4877195E0,0E0,1.4138889E1,5.018836E0,9.382265E0,0E0,0E0,0E0,0E0,3.9920845E0,1.2282104E0,2.1666667E0,1.3667502E0,0E0,1.1231518E0,0E0,2.980606E0,7.6790924E0,0E0,0E0,0E0,0E0,1.4707088E-1,0E0,4.75E0,0E0,0E0,2.6511736E0,1.105792E0,0E0,4.4444442E-1,0E0,0E0,0E0,6.8330383E-1,0E0,4.8478775E0,1.7902098E0,3.3333335E0,2.1689854E0,0E0,0E0,7.939644E0,1.0317535E0,0E0,0E0,5.5472717E0,2.355957E-1,0E0,0E0,1.9868607E1,3.7623604E1,1.24063835E1,8.939178E0,1.6601753E1,1.5711796E1,3.8699877E0,5.1195755E0,3.9150248E0,9.566008E0,1.0897156E1,1.8478653E1,7.8202753E0,5.3346233E0,0E0,3.833405E0,7.887762E0,4.875E0,0E0,1.1380806E0,5.7142854E-1,5.5437374E0,5.5856705E-1,1.2359146E1,5.867938E0,7.5E-1,1.1875153E-2,0E0,0E0,0E0,0E0,2.4666665E0,2.0397758E0,0E0,2.4844513E0,6.9347477E0,1.7822266E-1,1.620513E0,0E0,0E0,5.3418803E-1,0E0,3.4705882E0,0E0,0E0,2.5777779E0,2.2507797E1,0E0,0E0,2.8011322E-1,0E0,0E0,3.076923E-1,0E0,2.8363357E0,0E0,5.224328E-1,0E0,0E0,0E0,0E0,5.811966E-1,3.227087E0,4.5620728E-1,0E0,2.3111112E0,4.430537E0,5.0505047E0,9.7548294E-1,4.3518634E0,7.111111E-1,1.1088638E0,0E0,0E0,3.9444447E0,9.969893E0,2.505188E0,6.500616E0,8.687183E0,7.558595E0,5.909402E0,1.2043762E-1,0E0,4.058333E0,0E0,2.9782524E0,0E0,0E0,2.2156792E0,7.9047623E0,1.4259338E-2,2.1666667E0,2.6151514E0,0E0,3.0815215E0,3.4408903E0,5.4682827E0,3.0035496E0,0E0,0E0,7.355919E-1,1.111111E0,2.9230769E0,0E0,0E0,0E0,1.0533566E1,5.0555553E0,0E0,0E0,1.7934074E0,1E0,0E0,0E0,9.322357E-1,3.447619E0,0E0,0E0,0E0,4.1915746E0,1.3333333E0,1.0550728E0,2.0444446E0,1.1111112E0,0E0,0E0,7.8028417E-1,0E0,1.8513393E0,2.7435899E0,5.8006287E-1,7.5E-1,3.393567E0,7.081413E-1,0E0,0E0,4.3096924E-1,0E0,0E0,2.0444446E0,0E0,3.8534546E-1,0E0,0E0,4.4418716E-1,4.6095233E0,0E0,0E0,5.424652E-1,2.0268621E0,3.8599995E1,5.0258682E1,3.176079E1,6.1059036E0,2.9333334E0,4.5396824E0,9.287284E0,0E0,1.4660635E0,0E0,0E0,0E0,8.634869E0,1.0088081E0,1.4565125E1,0E0,9.807805E1,1.5307062E2,5.0219215E1,4.1765564E1,0E0,0E0,2.3406982E0,5.193924E0,0E0,0E0,0E0,0E0,0E0,0E0,0E0,4.374264E0,0E0,0E0,1.7139893E0,0E0,1.50067835E1,5.023596E0,0E0,0E0,6.6938477E0,1.6086956E0,8.0213904E-1,0E0,0E0,0E0,2.8162977E1,2.2586868E1,1.1161009E1,2.2595055E1,0E0,0E0,0E0,6.6428576E0,4.6465397E0,5.4460545E0,0E0,8.303801E0,2.120996E1,1.006984E1,4.1308823E0,0E0,0E0,1.7751195E0,0E0,0E0,4.462222E0,0E0,1.5475113E0,6.8111515E-1,4.944992E-2,5.5639095E0,0E0,0E0,0E0,4.599207E0,0E0,1.7134237E0,6.3333335E0,2.132021E0,2.5585098E0,1.3897436E1,0E0,7.8075438E0,0E0,0E0,1.0285714E0,0E0,0E0,0E0,0E0,0E0,8.867935E0,4.1214104E0,0E0,0E0,0E0,0E0,1.5873017E0,4.7794876E0,0E0,3.9271832E-1,0E0,0E0,0E0,0E0,6.435596E0,2.8976412E0,0E0,0E0,6.666666E-1,0E0,9.9869156E-1,0E0,8.08342E-1,3.1504762E0,4.4545455E0,5.760498E-1,4.877411E0,5.1133003E0,6.666666E-1,0E0,2.4741014E1,9.244293E0,1.360195E1,5.161804E0,4.201332E0,1.1293224E1,8.993925E0,1.4355379E1,1.1860931E1,7.5807953E0,5.816738E0,4.2408123E0,3.7552946E0,3.6529915E0,4.4719048E0,1.0114453E1,2.7988167E0,4.6868687E0,5.1706924E0,1.0101008E0,9.439453E0,5.9330025E0,5.3238215E0,4.259247E0,6.733469E0,4.315852E0,2.8682098E0,2.678985E0,1.2631578E0,1.4188035E0,3.9975986E0,4.512445E0,1.2865486E0,1.6666666E-1,6.9797516E-2,3.2799988E0,0E0,3.174603E-1,6.4793587E0,2.58547E0,0E0,0E0,8.613787E0,5.9518557E0,1.2727273E0,4.4956675E0,0E0,0E0,0E0,0E0,1.111111E0,0E0,2.27451E0,1.1878788E0,3.171429E0,5.6438446E-2,1.3714287E0,0E0,8.514343E0,0E0,0E0,1.3333333E0,0E0,0E0,0E0,0E0,0E0,0E0,5.740078E0,1.0517693E1,0E0,6.666666E-1,0E0,0E0,0E0,1.7916867E0,2.71111E-1,3.3459594E0,0E0,0E0,2.7818184E0,0E0,0E0,3.2666664E0,0E0,0E0,2.65098E0,3.8642533E0,0E0,0E0,0E0,0E0,1.1362319E0,1.3499999E0,1E0,0E0,0E0,3.4291935E0,8.9247227E-1,0E0,0E0,1.2461795E1,1.0312195E0,8.705926E0,6.748962E0,0E0,4.4545455E0,5.023632E0,6.298548E0,1.25E0,0E0,1.3430555E1,0E0,7.04E0,2.1666667E0,3.3564806E0,3.0800982E0,0E0,2.2598457E0,5.3418803E-1,3.2639518E0,2.3736262E0,1.4705887E0,0E0,0E0,0E0,2.3623996E0,0E0,4.4059086E0,3.142857E0,0E0,2.366757E0,3.7777758E-1,0E0,1.4792838E0,3.4589386E-1,0E0,0E0,0E0,0E0,0E0,0E0,6.324787E-1,3.0715008E0,0E0,0E0,0E0,4.8809242E-1,0E0,0E0,1.6666666E-1,3.2273865E-1,1.9523809E0,0E0,2.20537E0,2.2942247E0,0E0,0E0,3.8524818E0,0E0,0E0,0E0,0E0,0E0,0E0,8.571428E-1,2.1564922E0,0E0,1.1179488E0,2.0456383E0,0E0,2.6833038E0,0E0,0E0,3.0873127E0,3.8556862E0,4.7581873E0,1.7105103E-2,0E0,0E0,0E0,0E0,2.7608695E0,4.2520332E-1,0E0,1.4188035E0,0E0,0E0,2.4485779E-1,0E0,0E0,1.4718614E0,7.0587025E0,1.6213375E1,5.0520546E1,1.8920921E1,3.5187046E1,8.546196E0,3.1213677E0,3.5352058E0,0E0,6.666666E-1,0E0,0E0,3.174603E-1,1.2832165E0,0E0,0E0,3.8270493E0,1.1878788E0,4.255333E-1,0E0,0E0,9.351656E0,1.2241397E2,5.0505646E1,4.087626E1,3.890197E1,1.244931E1,1.4178371E1,1.0989264E2,7.010669E1,0E0,1.1512894E1,8.410893E0,2.2446747E0,5.5104895E0,4.149166E0,6.760181E0,0E0,6.2412395E0,4.8199644E0,2.7423248E0,3.2390108E0,1.2701517E1,3.38459E-1,0E0,0E0,0E0,0E0,4.344219E0,1.3903432E1,5.0917892E0,1.5194708E1,4.3664036E0,0E0,0E0,9.060466E0,0E0,0E0,3.3467922E0,3.7301586E0,2.8502412E0,0E0,0E0,2.1772423E1,1.9491882E1,3.4571865E1,2.1746635E-1,0E0,4.389656E0,4E0,0E0,0E0,0E0,0E0,0E0,0E0,0E0,0E0,0E0,0E0,0E0,0E0,1.3533573E0,5.728088E0,0E0,6.862027E-1,0E0,0E0,0E0,8.686869E0,2.7593613E0,2.1323762E0,0E0,0E0,0E0,0E0,0E0,0E0,1.6309767E0,3.6028988E0,4E0,1.9943123E0,0E0,0E0,6.333597E0,3.7142854E0,4.075632E-1,2.58547E0,0E0,5.1318088E0,0E0,2.1855502E0,0E0,0E0,3.43544E-1,0E0,7.6190567E-1,0E0,1.5873015E0,0E0,0E0,0E0,3.7164917E0,1.518692E0,1.309967E0,1.22170725E1,0E0,8.0877733E-1,0E0,0E0,6.07619E0,0E0,7.6683044E0,4.538947E0,6.9054537E0,8.78802E0,4.3632812E0,4.32E0,2.062015E0,0E0,7.798668E0,0E0,7.753666E0,4.133395E0,7.841942E0,5.6766443E0,1.4094932E1,7.181301E0,5.5940704E0,1.7460316E0,2.1442008E0,1.8665161E0,1.4006212E0,0E0,3.4666665E0,4.523327E0,0E0,6.4853797E0,6.8879123E0,3.3338928E0,2.5039682E0,1.6982455E0,3.2190475E0,5.4143057E0,5.2222223E0,0E0,5.3207912E0,5.2540793E0,1.5873017E0,0E0,3.5615234E0,0E0,2.9290314E0,0E0,0E0,5.6067476E0,7.712799E0,1.8846169E0,5.4888353E0,5.423707E0,3.3398237E0,0E0,3.4600582E0,0E0,3.7727153E0,3E0,2.4148607E0,0E0,0E0,0E0,0E0,1.0776844E0,3.6363626E-1,5.5909047E0,0E0,0E0,0E0,0E0,0E0,0E0,3.0338678E0,0E0,0E0,0E0,1.6213226E0,0E0,0E0,0E0,7.6910286E0,5.742857E0,5.384207E0,4.4330482E0,1.4230769E0,8.547008E-1,2.040207E0,1.6666666E-1,0E0,0E0,6.666666E-1,0E0,0E0,0E0,0E0,0E0,0E0,0E0,0E0,0E0,1.3024902E-1,0E0,0E0,0E0,2.1142857E0,1.4734383E0,0E0,7.414282E0,0E0,0E0,0E0,0E0,0E0,6.66667E-1,0E0,0E0,0E0,2.3253956E0,4E0,2.1777782E0,0E0,0E0,1.880343E-1,0E0,0E0,0E0,0E0,0E0,0E0,0E0,0E0,1.1593583E0,0E0,2.4086094E-1,0E0,6.158985E0,3.4649658E0,5.693817E-1,0E0,0E0,0E0,5.5857124E0,0E0,0E0,2.2125587E0,3.397271E0,0E0,7.0028005E0,0E0,0E0,0E0,7.86325E-1,0E0,0E0,0E0,0E0,0E0,0E0,1.6615381E0,0E0,0E0,1.3636364E0,0E0,0E0,1.2745098E0,1.4471846E0,0E0,1E0,0E0,5.8883667E-1,1.2380953E0,2.126519E0,0E0,0E0,8.571428E-1,0E0,1.3499999E0,8.495239E-1,1.6666666E-1,0E0,2.2203207E0,0E0,0E0,3.7820816E-2,3.2478642E-1,5.3418803E-1,0E0,3.348422E0,1.1802578E0,2.4761906E0,0E0,0E0,1.19880676E-1,0E0,1.8686867E0,0E0,1.5475113E0,2.3809521E0,1.3319244E0,4.1487427E0,1.9269457E0,2.9230769E0,0E0,0E0,4.321212E0,1.9534893E0,1.251515E0,6.060606E-1,1.2330827E0,0E0,0E0,0E0,0E0,2.9230769E0,8.085561E-1,6.666666E-1,2.811429E0,0E0,0E0,0E0,0E0,1.2556138E0,0E0,3.966137E0,0E0,0E0,5.1882935E-1,6.133333E0,0E0,0E0,6.982323E0,0E0,3.2666626E0,1.0285714E0,1.2385696E1,2.6570072E1,5.2943726E0,1.5027828E1,7.19952E0,3.1901684E0,1.7111112E0,1.7296181E0,0E0,3.1583712E0,3.133606E0,0E0,0E0,0E0,0E0,0E0,1.333333E0,0E0,5.444523E0,4.6901116E0,0E0,0E0,4.5714283E-1,0E0,6.9045453E0,5.6544113E0,9.690506E0,9.301033E0,1.4668825E1,3.1702759E1,5.209156E0,1.666755E1,1.9266937E1,2.4688406E1,3.296774E0,5.326667E0,1.320182E1,7.4580417E0,2.8246094E1,1.1255371E1,6.6958313E0,1.66894E1,9.904762E0,1.7557831E0,0E0,3.174603E-1,0E0,1.6124496E0,0E0,8.547008E-1,2.71698E-1,3.7066667E0,0E0,0E0,4.734299E0,0E0,1.7777778E-1,0E0,0E0,0E0,4.5714283E-1,0E0,0E0,2.4449065E0,1.1999998E0,0E0,0E0,0E0,1.0758097E1,8.032752E0,0E0,2.689293E0,1.4993728E1,7.887108E0,6.982323E0,0E0,1.1638098E1,0E0,6.780951E-1,0E0,0E0,1.8686867E0,0E0,0E0,0E0,6.593609E-1,1.3037598E1,1.0295767E1,4.392962E1,2.1032154E1,6.296443E0,0E0,4.499854E0,2.917984E0,0E0,0E0,3.6325455E-2,0E0,0E0,0E0,0E0,2.8011203E-1,0E0,1.9797983E0,6.051941E-1,0E0,2.1666667E0,0E0,1.0437708E0,2.5584416E0,0E0,1.6666666E-1,0E0,0E0,1.8143234E0,1.6666666E-1,1.8567777E0,0E0,1.0634918E0,4.248366E0,8.571428E-1,0E0,0E0,0E0,1.7773485E0,4.45E0,2.152381E0,0E0,6.666666E-1,0E0,2.3149986E0,2.06014E0,0E0,8.333334E-1,0E0,2.9879122E0,2.5169067E0,0E0,2.3019409E-1,2.1020098E0,0E0,1.8615131E0,0E0,0E0,0E0,0E0,1.0786118E1,8.083786E0,6.8771935E-1,1.3511112E0,4.238553E0,2.5416965E0,4.774637E0,5.318182E0,2.3846436E0,0E0,0E0,3.5636358E0,1.8803419E-1,2.6626225E0,2.0475025E0,3.8678575E0,1.3706293E0,6.1005945E0,0E0,3.8181818E0,4.8771505E0,6.4144516E0,2.0326529E0,1.640523E0,6.892748E0,7.601469E0,2.4483173E0,7.360317E0,2.2746277E-1,4.010257E0,0E0,0E0,3.9826841E0,0E0,9.249077E-1,3.1923075E0,3.022456E0,1.5531135E0,0E0,0E0,5.1915693E-1,0E0,3.466667E0,1.9676113E0,0E0,1.170635E0,3.0977442E0,1.3392448E0,0E0,0E0,0E0,0E0,0E0,6.060606E-1,9.1182137E-1,4.8097167E0,1.1999998E0,1.8686867E0,0E0,2.6334841E0,0E0,4.688485E0,0E0,0E0,1.4932098E0,4.7937546E0,0E0,3.0357742E0,3.1256447E0,0E0,5.614212E0,2.6514506E0,1.226902E0,0E0,6.749541E0,1.1628809E1,2.2768812E0,1.640523E0,3.142857E0,1.9165592E0,1.7025642E0,3.247863E0,2.4666665E0,2.6373672E-1,0E0,0E0,0E0,1.8493928E0,1.7797546E0,2.172727E0,0E0,0E0,0E0,7.5671053E0,0E0,8.86878E-1,3.5750008E-1,0E0,1.4945068E0,1.8936651E0,2.7608695E0,0E0,1.6615381E0,5.732194E0,1.7777824E-1,2.58547E0,0E0,0E0,0E0,0E0,3.8095238E0,0E0,0E0,0E0,0E0,0E0,0E0,0E0,0E0,0E0,0E0,0E0,0E0,0E0,0E0,0E0,0E0,0E0,0E0,0E0,0E0,0E0,0E0,0E0,0E0,0E0,0E0,0E0,0E0,0E0,0E0,0E0,0E0,0E0,0E0,0E0,0E0,0E0,0E0,0E0,0E0,0E0,0E0,0E0,0E0,0E0,0E0,0E0,0E0,0E0,0E0,0E0,0E0,0E0,0E0,0E0,0E0,0E0,0E0,0E0,0E0,0E0,0E0,0E0,0E0,0E0,0E0,0E0,0E0,0E0,0E0,0E0,0E0,0E0,0E0,0E0,0E0,0E0,0E0,0E0,0E0,0E0,0E0,0E0,0E0,0E0,0E0,0E0,0E0,0E0,0E0,0E0,0E0,0E0,0E0,0E0,0E0,0E0,0E0,0E0,0E0,0E0,0E0,0E0,0E0,0E0,0E0,0E0,0E0,0E0,0E0,0E0,0E0,0E0,0E0,0E0,0E0,0E0,0E0,0E0,0E0,0E0,0E0,0E0,0E0,0E0,0E0,0E0,0E0,0E0,0E0,0E0,0E0,0E0,0E0,0E0,0E0,0E0,0E0,0E0,0E0,0E0,0E0,0E0,0E0,0E0,0E0,0E0,0E0,0E0,0E0,0E0,0E0,0E0,0E0,0E0,0E0,0E0,0E0,0E0,0E0,0E0,0E0,0E0,0E0,0E0,0E0,0E0,0E0,0E0,0E0,0E0,0E0,0E0,0E0,0E0,0E0,0E0,0E0,0E0,0E0,0E0,0E0,0E0,0E0,0E0,0E0,0E0,0E0,0E0,0E0,0E0,0E0,0E0,0E0,0E0,0E0,0E0,0E0,0E0,0E0,0E0,0E0,0E0,0E0,0E0,0E0,0E0,0E0,0E0,0E0,0E0,0E0,0E0,0E0,0E0,0E0,0E0,0E0,0E0,0E0,0E0,0E0,0E0,0E0,0E0,0E0,0E0,0E0,0E0,0E0,0E0,0E0,0E0,0E0,0E0,0E0,0E0,0E0,0E0,0E0,0E0,0E0,0E0,0E0,0E0,0E0,0E0,0E0,0E0,0E0,0E0,0E0,0E0,0E0,0E0,0E0,0E0,0E0,0E0,0E0,0E0,0E0,0E0,0E0,0E0,0E0,0E0,0E0,0E0,0E0,0E0,0E0,0E0,0E0,0E0,0E0,0E0,0E0,0E0,0E0,0E0,0E0,0E0,0E0,0E0,0E0,0E0,0E0,0E0,0E0,0E0,0E0,0E0,0E0,0E0,0E0,0E0,0E0,0E0,0E0,0E0,0E0,0E0,0E0,0E0,0E0,0E0,0E0,0E0,0E0,0E0,0E0,0E0,0E0,0E0,0E0,0E0,0E0,0E0,0E0,0E0,0E0,0E0,0E0,0E0,0E0,0E0,0E0,0E0,0E0,0E0,0E0,0E0,0E0,0E0,0E0,0E0,0E0,0E0,0E0,0E0,0E0,0E0,0E0,0E0,0E0,0E0,0E0,0E0,0E0,0E0,0E0,0E0,0E0,0E0,0E0,0E0,0E0,0E0,0E0,0E0,0E0,0E0,0E0,0E0,0E0,0E0,0E0,0E0,0E0,0E0,0E0,0E0,0E0,0E0,0E0,0E0,0E0,0E0,0E0,0E0,0E0,0E0,0E0,0E0,0E0,0E0,0E0,0E0,0E0,0E0,0E0,0E0,0E0,0E0,0E0,0E0,0E0,0E0,0E0,0E0,0E0,0E0,0E0,0E0,0E0,0E0,0E0,0E0,0E0,0E0,0E0,0E0,0E0,0E0,0E0,0E0,0E0,0E0,0E0,0E0,0E0,0E0,0E0,0E0,0E0,0E0,0E0,0E0,0E0,0E0,0E0,0E0,0E0,0E0,0E0,0E0,0E0,0E0,0E0,0E0,0E0,0E0,0E0,0E0,0E0,0E0,0E0,0E0,0E0,0E0,0E0,0E0,0E0,0E0],"parents":[2147483647,0,0,1,1,2,2,3,3,4,4,5,5,6,6,7,7,9,9,11,11,12,12,13,13,14,14,15,15,16,16,17,17,18,18,19,19,20,20,21,21,22,22,23,23,24,24,25,25,27,27,28,28,29,29,30,30,31,31,32,32,33,33,34,34,35,35,36,36,37,37,38,38,39,39,41,41,43,43,45,45,46,46,47,47,48,48,49,49,50,50,51,51,52,52,53,53,54,54,57,57,58,58,59,59,60,60,61,61,63,63,64,64,65,65,67,67,68,68,69,69,70,70,71,71,72,72,73,73,74,74,75,75,76,76,77,77,78,78,79,79,80,80,83,83,84,84,85,85,86,86,87,87,88,88,89,89,90,90,91,91,93,93,94,94,95,95,96,96,98,98,99,99,100,100,101,101,102,102,103,103,104,104,105,105,106,106,107,107,108,108,109,109,110,110,111,111,112,112,113,113,114,114,115,115,117,117,118,118,119,119,120,120,121,121,122,122,123,123,124,124,125,125,126,126,127,127,128,128,129,129,130,130,131,131,132,132,133,133,134,134,135,135,136,136,137,137,138,138,139,139,140,140,141,141,144,144,145,145,146,146,147,147,148,148,149,149,150,150,151,151,152,152,153,153,154,154,155,155,156,156,157,157,159,159,160,160,163,163,164,164,166,166,167,167,169,169,171,171,172,172,174,174,176,176,177,177,179,179,181,181,182,182,183,183,184,184,185,185,186,186,187,187,188,188,191,191,192,192,196,196,197,197,198,198,199,199,200,200,201,201,202,202,203,203,204,204,205,205,206,206,207,207,209,209,210,210,211,211,212,212,214,214,215,215,216,216,218,218,219,219,220,220,221,221,222,222,224,224,226,226,227,227,228,228,230,230,232,232,233,233,234,234,235,235,236,236,240,240,241,241,242,242,243,243,244,244,247,247,248,248,249,249,253,253,256,256,258,258,260,260,261,261,262,262,263,263,264,264,265,265,266,266,267,267,268,268,269,269,270,270,271,271,272,272,273,273,274,274,275,275,283,283,285,285,286,286,287,287,289,289,293,293,295,295,296,296,297,297,298,298,299,299,307,307,309,309,310,310,311,311,312,312,315,315,317,317,320,320,321,321,322,322,323,323,325,325,326,326,327,327,329,329,331,331,332,332,333,333,334,334,335,335,336,336,337,337,338,338,339,339,340,340,341,341,342,342,343,343,344,344,345,345,346,346,347,347,349,349,351,351,352,352,353,353,354,354,355,355,356,356,358,358,359,359,360,360,364,364,367,367,371,371,372,372,373,373,374,374,375,375,376,376,379,379,380,380,381,381,382,382,383,383,384,384,388,388,389,389,390,390,391,391,393,393,394,394,395,395,396,396,397,397,399,399,402,402,403,403,405,405,408,408,410,410,414,414,417,417,420,420,421,421,422,422,423,423,424,424,425,425,426,426,427,427,428,428,429,429,430,430,435,435,436,436,437,437,438,438,439,439,441,441,442,442,443,443,444,444,447,447,449,449,451,451,454,454,456,456,457,457,458,458,462,462,463,463,465,465,466,466,467,467,468,468,469,469,470,470,471,471,475,475,477,477,478,478,479,479,480,480,481,481,482,482,484,484,485,485,487,487,489,489,495,495,496,496,497,497,499,499,500,500,501,501,502,502,503,503,504,504,509,509,511,511,512,512,513,513,515,515,516,516,519,519,520,520,521,521,522,522,523,523,524,524,527,527,528,528,529,529,531,531,532,532,533,533,534,534,535,535,536,536,537,537,538,538,543,543,544,544,545,545,547,547,548,548,549,549,550,550,551,551,552,552,553,553,555,555,556,556,557,557,559,559,565,565,567,567,569,569,570,570,572,572,574,574,576,576,578,578,580,580,581,581,582,582,583,583,586,586,587,587,589,589,591,591,592,592,593,593,594,594,595,595,596,596,599,599,603,603,604,604,611,611,617,617,621,621,622,622,623,623,624,624,625,625,626,626,627,627,628,628,629,629,630,630,631,631,632,632,633,633,634,634,635,635,636,636,639,639,645,645,646,646,650,650,651,651,653,653,654,654,655,655,656,656,657,657,658,658,659,659,660,660,663,663,665,665,666,666,671,671,672,672,679,679,680,680,681,681,682,682,683,683,685,685,686,686,687,687,688,688,690,690,697,697,698,698,700,700,701,701,702,702,703,703,705,705,706,706,707,707,709,709,710,710,713,713,714,714,715,715,716,716,717,717,718,718,719,719,720,720,721,721,722,722,723,723,724,724,726,726,727,727,729,729,730,730,733,733,734,734,738,738,739,739,740,740,741,741,742,742,744,744,747,747,749,749,751,751,752,752,753,753,754,754,758,758,763,763,764,764,768,768,769,769,774,774,775,775,776,776,777,777,778,778,779,779,780,780,781,781,783,783,784,784,785,785,786,786,787,787,788,788,789,789,790,790,791,791,796,796,803,803,805,805,806,806,807,807,809,809,810,810,811,811,816,816,817,817,818,818,819,819,821,821,823,823,824,824,829,829,831,831,834,834,835,835,837,837,841,841,843,843,844,844,845,845,846,846,849,849,850,850,853,853,854,854,857,857,858,858,859,859,860,860,861,861,862,862,863,863,864,864,865,865,866,866,867,867,868,868,869,869,870,870,872,872,873,873,874,874,876,876,877,877,878,878,879,879,880,880,881,881,882,882,883,883,888,888,889,889,891,891,892,892,893,893,894,894,897,897,899,899,902,902,903,903,906,906,909,909,911,911,913,913,918,918,919,919,920,920,922,922,923,923,924,924,925,925,926,926,927,927,928,928,931,931,932,932,933,933,934,934,935,935,936,936,937,937,938,938,940,940,942,942,945,945,946,946,947,947,948,948,949,949,951,951,952,952,953,953,954,954,957,957,958,958,959,959,963,963,964,964,967,967,968,968,971,971,972,972,976,976,977,977,978,978,979,979,980,980,983,983,985,985,986,986,987,987,988,988,989,989,990,990,993,993,996,996,998,998,1001,1001,1002,1002,1005,1005,1006,1006,1007,1007,1008,1008,1009,1009,1010,1010,1011,1011,1012,1012,1013,1013,1015,1015,1019,1019,1020,1020,1021,1021,1023,1023,1024,1024,1025,1025,1026,1026,1029,1029,1030,1030,1038,1038,1041,1041,1043,1043,1044,1044,1047,1047,1048,1048,1049,1049,1053,1053,1054,1054,1055,1055,1056,1056,1060,1060,1061,1061,1062,1062,1064,1064,1065,1065,1066,1066,1067,1067,1070,1070,1073,1073,1075,1075,1076,1076,1077,1077,1078,1078,1082,1082,1084,1084,1085,1085,1086,1086,1087,1087,1088,1088,1090,1090,1093,1093,1099,1099,1100,1100,1105,1105,1106,1106,1108,1108,1113,1113,1114,1114,1117,1117,1119,1119,1121,1121,1122,1122,1123,1123,1124,1124,1125,1125,1126,1126,1127,1127,1129,1129,1130,1130,1131,1131,1132,1132,1133,1133,1134,1134,1135,1135,1136,1136,1137,1137,1138,1138,1139,1139,1140,1140,1141,1141,1142,1142,1143,1143,1144,1144,1145,1145,1146,1146,1147,1147,1148,1148,1149,1149,1150,1150,1151,1151,1152,1152,1153,1153,1154,1154,1155,1155,1156,1156,1157,1157,1158,1158,1159,1159,1160,1160,1161,1161,1162,1162,1163,1163,1164,1164,1166,1166,1167,1167,1168,1168,1171,1171,1172,1172,1173,1173,1174,1174,1179,1179,1181,1181,1182,1182,1183,1183,1184,1184,1185,1185,1187,1187,1190,1190,1197,1197,1198,1198,1200,1200,1204,1204,1205,1205,1206,1206,1209,1209,1212,1212,1215,1215,1216,1216,1221,1221,1222,1222,1223,1223,1226,1226,1227,1227,1230,1230,1231,1231,1232,1232,1233,1233,1235,1235,1236,1236,1237,1237,1238,1238,1240,1240,1242,1242,1243,1243,1244,1244,1245,1245,1247,1247,1248,1248,1249,1249,1250,1250,1251,1251,1255,1255,1257,1257,1258,1258,1260,1260,1261,1261,1263,1263,1264,1264,1271,1271,1272,1272,1276,1276,1279,1279,1280,1280,1281,1281,1283,1283,1284,1284,1287,1287,1294,1294,1295,1295,1297,1297,1298,1298,1300,1300,1303,1303,1304,1304,1305,1305,1306,1306,1311,1311,1312,1312,1314,1314,1317,1317,1320,1320,1321,1321,1322,1322,1323,1323,1324,1324,1325,1325,1326,1326,1327,1327,1328,1328,1330,1330,1333,1333,1334,1334,1337,1337,1338,1338,1339,1339,1342,1342,1343,1343,1344,1344,1345,1345,1346,1346,1347,1347,1348,1348,1349,1349,1350,1350,1352,1352,1353,1353,1354,1354,1355,1355,1356,1356,1357,1357,1359,1359,1360,1360,1361,1361,1362,1362,1363,1363,1364,1364,1369,1369,1370,1370,1371,1371,1372,1372,1373,1373,1376,1376,1379,1379,1380,1380,1381,1381,1384,1384,1385,1385,1386,1386,1387,1387,1389,1389,1390,1390,1403,1403,1404,1404,1406,1406,1410,1410,1411,1411,1412,1412,1419,1419,1420,1420,1421,1421,1422,1422,1425,1425,1426,1426,1427,1427,1428,1428,1430,1430,1432,1432,1435,1435,1437,1437,1439,1439,1443,1443,1444,1444,1445,1445,1446,1446,1448,1448,1451,1451,1453,1453,1454,1454,1455,1455,1456,1456,1457,1457,1458,1458,1459,1459,1461,1461,1463,1463,1464,1464,1465,1465,1466,1466,1467,1467,1468,1468,1469,1469,1470,1470,1471,1471,1472,1472,1473,1473,1475,1475,1476,1476,1478,1478,1479,1479,1480,1480,1481,1481,1482,1482,1483,1483,1484,1484,1485,1485,1487,1487,1488,1488,1489,1489,1491,1491,1493,1493,1496,1496,1497,1497,1498,1498,1499,1499,1500,1500,1501,1501,1503,1503,1505,1505,1506,1506,1507,1507,1512,1512,1513,1513,1514,1514,1521,1521,1525,1525,1529,1529,1530,1530,1531,1531,1532,1532,1533,1533,1534,1534,1535,1535,1536,1536,1539,1539,1549,1549,1553,1553,1554,1554,1556,1556,1562,1562,1566,1566,1567,1567,1568,1568,1571,1571,1580,1580,1582,1582,1584,1584,1585,1585,1586,1586,1590,1590,1593,1593,1594,1594,1596,1596,1600,1600,1607,1607,1610,1610,1613,1613,1614,1614,1616,1616,1618,1618,1619,1619,1620,1620,1623,1623,1625,1625,1626,1626,1627,1627,1629,1629,1632,1632,1633,1633,1634,1634,1636,1636,1637,1637,1638,1638,1641,1641,1643,1643,1645,1645,1646,1646,1647,1647,1648,1648,1649,1649,1650,1650,1653,1653,1654,1654,1655,1655,1656,1656,1657,1657,1662,1662,1663,1663,1664,1664,1665,1665,1670,1670,1672,1672,1675,1675,1676,1676,1679,1679,1681,1681,1682,1682,1683,1683,1684,1684,1685,1685,1686,1686,1687,1687,1688,1688,1689,1689,1690,1690,1692,1692,1693,1693,1699,1699,1701,1701,1702,1702,1705,1705,1707,1707,1708,1708,1709,1709,1710,1710,1711,1711,1712,1712,1713,1713,1714,1714,1715,1715,1716,1716,1717,1717,1718,1718,1719,1719,1720,1720,1721,1721,1722,1722,1723,1723,1724,1724,1725,1725,1726,1726,1728,1728,1730,1730,1732,1732,1733,1733,1734,1734,1737,1737,1739,1739,1743,1743,1746,1746,1747,1747,1751,1751,1752,1752,1754,1754,1755,1755,1756,1756,1757,1757,1759,1759,1761,1761,1764,1764,1768,1768,1769,1769,1770,1770,1771,1771,1772,1772,1773,1773,1775,1775,1776,1776,1779,1779,1784,1784,1786,1786,1787,1787,1789,1789,1791,1791,1792,1792,1794,1794,1797,1797,1798,1798,1799,1799,1801,1801,1802,1802,1803,1803,1807,1807,1808,1808,1809,1809,1811,1811,1813,1813,1814,1814,1816,1816,1818,1818,1819,1819,1821,1821,1822,1822,1824,1824,1829,1829,1830,1830,1831,1831,1832,1832,1833,1833,1834,1834,1835,1835,1836,1836,1837,1837,1840,1840,1841,1841,1842,1842,1843,1843,1844,1844,1845,1845,1846,1846,1848,1848,1849,1849,1850,1850,1851,1851,1852,1852,1853,1853,1854,1854,1855,1855,1856,1856,1857,1857,1858,1858,1861,1861,1863,1863,1864,1864,1865,1865,1866,1866,1869,1869,1871,1871,1872,1872,1874,1874,1875,1875,1876,1876,1882,1882,1883,1883,1884,1884,1885,1885,1886,1886,1888,1888,1890,1890,1893,1893,1894,1894,1896,1896,1897,1897,1899,1899,1900,1900,1901,1901,1903,1903,1904,1904,1905,1905,1906,1906,1907,1907,1908,1908,1909,1909,1910,1910,1911,1911,1912,1912,1916,1916,1917,1917,1918,1918,1922,1922,1924,1924,1925,1925,1927,1927,1928,1928,1929,1929,1931,1931,1932,1932,1933,1933,1934,1934,1939,1939],"right_children":[2,4,6,8,10,12,14,16,-1,18,-1,20,22,24,26,28,30,32,34,36,38,40,42,44,46,48,-1,50,52,54,56,58,60,62,64,66,68,70,72,74,-1,76,-1,78,-1,80,82,84,86,88,90,92,94,96,98,-1,-1,100,102,104,106,108,-1,110,112,114,-1,116,118,120,122,124,126,128,130,132,134,136,138,140,142,-1,-1,144,146,148,150,152,154,156,158,160,-1,162,164,166,168,-1,170,172,174,176,178,180,182,184,186,188,190,192,194,196,198,200,202,204,-1,206,208,210,212,214,216,218,220,222,224,226,228,230,232,234,236,238,240,242,244,246,248,250,252,254,-1,-1,256,258,260,262,264,266,268,270,272,274,276,278,280,282,-1,284,286,-1,-1,288,290,-1,292,294,-1,296,-1,298,300,-1,302,-1,304,306,-1,308,-1,310,312,314,316,318,320,322,324,-1,-1,326,328,-1,-1,-1,330,332,334,336,338,340,342,344,346,348,350,352,-1,354,356,358,360,-1,362,364,366,-1,368,370,372,374,376,-1,378,-1,380,382,384,-1,386,-1,388,390,392,394,396,-1,-1,-1,398,400,402,404,406,-1,-1,408,410,412,-1,-1,-1,414,-1,-1,416,-1,418,-1,420,422,424,426,428,430,432,434,436,438,440,442,444,446,448,450,-1,-1,-1,-1,-1,-1,-1,452,-1,454,456,458,-1,460,-1,-1,-1,462,-1,464,466,468,470,472,-1,-1,-1,-1,-1,-1,-1,474,-1,476,478,480,482,-1,-1,484,-1,486,-1,-1,488,490,492,494,-1,496,498,500,-1,502,-1,504,506,508,510,512,514,516,518,520,522,524,526,528,530,532,534,536,-1,538,-1,540,542,544,546,548,550,-1,552,554,556,-1,-1,-1,558,-1,-1,560,-1,-1,-1,562,564,566,568,570,572,-1,-1,574,576,578,580,582,584,-1,-1,-1,586,588,590,592,-1,594,596,598,600,602,-1,604,-1,-1,606,608,-1,610,-1,-1,612,-1,614,-1,-1,-1,616,-1,-1,618,-1,-1,620,622,624,626,628,630,632,634,636,638,640,-1,-1,-1,-1,642,644,646,648,650,-1,652,654,656,658,-1,-1,660,-1,662,-1,664,-1,-1,666,-1,668,670,672,-1,-1,-1,674,676,-1,678,680,682,684,686,688,690,-1,-1,-1,692,-1,694,696,698,700,702,704,-1,706,708,-1,710,-1,712,-1,-1,-1,-1,-1,714,716,718,-1,720,722,724,726,728,730,-1,-1,-1,-1,732,-1,734,736,738,-1,740,742,-1,-1,744,746,748,750,752,754,-1,-1,756,758,760,-1,762,764,766,768,770,772,774,776,-1,-1,-1,-1,778,780,782,-1,784,786,788,790,792,794,796,-1,798,800,802,-1,804,-1,-1,-1,-1,-1,806,-1,808,-1,810,812,-1,814,-1,816,-1,818,-1,820,-1,822,824,826,828,-1,-1,830,832,-1,834,-1,836,838,840,842,844,846,-1,-1,848,-1,-1,-1,850,852,-1,-1,-1,-1,-1,-1,854,-1,-1,-1,-1,-1,856,-1,-1,-1,858,860,862,864,866,868,870,872,874,876,878,880,882,884,886,888,-1,-1,890,-1,-1,-1,-1,-1,892,894,-1,-1,-1,896,898,-1,900,902,904,906,908,910,912,914,-1,-1,916,-1,918,920,-1,-1,-1,-1,922,924,-1,-1,-1,-1,-1,-1,926,928,930,932,934,-1,936,938,940,942,-1,944,-1,-1,-1,-1,-1,-1,946,948,-1,950,952,954,956,-1,958,960,962,-1,964,966,-1,-1,968,970,972,974,976,978,980,982,984,986,988,990,-1,992,994,-1,996,998,-1,-1,1000,1002,-1,-1,-1,1004,1006,1008,1010,1012,-1,1014,-1,-1,1016,-1,1018,-1,1020,1022,1024,1026,-1,-1,-1,1028,-1,-1,-1,-1,1030,1032,-1,-1,-1,1034,1036,-1,-1,-1,-1,1038,1040,1042,1044,1046,1048,1050,1052,-1,1054,1056,1058,1060,1062,1064,1066,1068,1070,-1,-1,-1,-1,1072,-1,-1,-1,-1,-1,-1,1074,-1,1076,1078,1080,-1,1082,1084,1086,-1,-1,-1,-1,1088,1090,1092,1094,-1,1096,-1,1098,1100,-1,-1,-1,-1,1102,-1,1104,-1,-1,1106,1108,-1,1110,-1,-1,-1,1112,-1,1114,1116,1118,1120,-1,-1,1122,1124,-1,-1,1126,1128,-1,-1,1130,1132,1134,1136,1138,1140,1142,1144,1146,1148,1150,1152,1154,1156,-1,1158,1160,1162,-1,1164,1166,1168,1170,1172,1174,1176,1178,-1,-1,-1,-1,1180,1182,-1,1184,1186,1188,1190,-1,-1,1192,-1,1194,-1,-1,1196,1198,-1,-1,1200,-1,-1,1202,-1,1204,-1,1206,-1,-1,-1,-1,1208,1210,1212,-1,1214,1216,1218,1220,1222,1224,1226,-1,-1,1228,1230,1232,1234,1236,1238,1240,1242,-1,1244,-1,1246,-1,-1,1248,1250,1252,1254,1256,-1,1258,1260,1262,1264,-1,-1,1266,1268,1270,-1,-1,-1,1272,1274,-1,-1,1276,1278,-1,-1,1280,1282,-1,-1,-1,1284,1286,1288,1290,1292,-1,-1,1294,-1,1296,1298,1300,1302,1304,1306,-1,-1,1308,-1,-1,1310,-1,1312,-1,-1,1314,1316,-1,-1,1318,1320,1322,1324,1326,1328,1330,1332,1334,-1,1336,-1,-1,-1,1338,1340,1342,-1,1344,1346,1348,1350,-1,-1,1352,1354,-1,-1,-1,-1,-1,-1,-1,1356,-1,-1,1358,-1,1360,1362,-1,-1,1364,1366,1368,-1,-1,-1,1370,1372,1374,1376,-1,-1,-1,1378,1380,1382,-1,1384,1386,1388,1390,-1,-1,1392,-1,-1,1394,-1,1396,1398,1400,1402,-1,-1,-1,1404,-1,1406,1408,1410,1412,1414,-1,1416,-1,-1,1418,-1,-1,-1,-1,-1,1420,1422,-1,-1,-1,-1,1424,1426,-1,1428,-1,-1,-1,-1,1430,1432,-1,-1,1434,-1,1436,-1,1438,1440,1442,1444,1446,1448,1450,-1,1452,1454,1456,1458,1460,1462,1464,1466,1468,1470,1472,1474,1476,1478,1480,1482,1484,1486,1488,1490,1492,1494,1496,1498,1500,1502,1504,1506,1508,1510,1512,1514,1516,1518,1520,1522,-1,1524,1526,1528,-1,-1,1530,1532,1534,1536,-1,-1,-1,-1,1538,-1,1540,1542,1544,1546,1548,-1,1550,-1,-1,1552,-1,-1,-1,-1,-1,-1,1554,1556,-1,1558,-1,-1,-1,1560,1562,1564,-1,-1,1566,-1,-1,1568,-1,-1,1570,1572,-1,-1,-1,-1,1574,1576,1578,-1,-1,1580,1582,-1,-1,1584,1586,1588,1590,-1,1592,1594,1596,1598,-1,1600,-1,1602,1604,1606,1608,-1,1610,1612,1614,1616,1618,-1,-1,-1,1620,-1,1622,1624,-1,1626,1628,-1,1630,1632,-1,-1,-1,-1,-1,-1,1634,1636,-1,-1,-1,1638,-1,-1,1640,1642,1644,-1,1646,1648,-1,-1,1650,-1,-1,-1,-1,-1,-1,1652,1654,-1,1656,1658,-1,1660,-1,-1,1662,1664,1666,1668,-1,-1,-1,-1,1670,1672,-1,1674,-1,-1,1676,-1,-1,1678,1680,1682,1684,1686,1688,1690,1692,1694,-1,1696,-1,-1,1698,1700,-1,-1,1702,1704,1706,-1,-1,1708,1710,1712,1714,1716,1718,1720,1722,1724,-1,1726,1728,1730,1732,1734,1736,-1,1738,1740,1742,1744,1746,1748,-1,-1,-1,-1,1750,1752,1754,1756,1758,-1,-1,1760,-1,-1,1762,1764,1766,-1,-1,1768,1770,1772,1774,-1,1776,1778,-1,-1,-1,-1,-1,-1,-1,-1,-1,-1,-1,-1,1780,1782,-1,1784,-1,-1,-1,1786,1788,1790,-1,-1,-1,-1,-1,-1,1792,1794,1796,1798,-1,-1,1800,1802,1804,1806,-1,1808,-1,1810,-1,-1,1812,-1,1814,-1,1816,-1,-1,-1,1818,1820,1822,1824,-1,1826,-1,-1,1828,-1,1830,1832,1834,1836,1838,1840,1842,-1,1844,-1,1846,1848,1850,1852,1854,1856,1858,1860,1862,1864,1866,-1,1868,1870,-1,1872,1874,1876,1878,1880,1882,1884,1886,-1,1888,1890,1892,-1,1894,-1,1896,-1,-1,1898,1900,1902,1904,1906,1908,-1,1910,-1,1912,1914,1916,-1,-1,-1,-1,1918,1920,1922,-1,-1,-1,-1,-1,-1,1924,-1,-1,-1,1926,-1,-1,-1,1928,1930,1932,1934,1936,1938,1940,1942,-1,-1,1944,-1,-1,-1,-1,-1,-1,-1,-1,-1,1946,-1,-1,-1,1948,1950,-1,1952,-1,-1,-1,-1,-1,1954,-1,-1,-1,1956,1958,1960,-1,-1,1962,-1,-1,-1,-1,-1,-1,-1,-1,1964,-1,1966,-1,1968,1970,1972,-1,-1,-1,1974,-1,-1,1976,1978,-1,1980,-1,-1,-1,1982,-1,-1,-1,-1,-1,-1,1984,-1,-1,1986,-1,-1,1988,1990,-1,1992,-1,1994,1996,1998,-1,-1,2000,-1,2002,2004,2006,-1,2008,-1,-1,2010,2012,2014,-1,2016,2018,2020,-1,-1,2022,-1,2024,-1,2026,2028,2030,2032,2034,2036,-1,-1,2038,2040,2042,2044,2046,-1,-1,-1,-1,2048,2050,2052,2054,-1,-1,-1,-1,2056,-1,2058,-1,-1,2060,2062,-1,-1,2064,-1,2066,2068,2070,2072,2074,2076,2078,2080,2082,2084,-1,2086,2088,-1,-1,-1,-1,-1,2090,-1,2092,2094,-1,-1,2096,-1,2098,2100,2102,2104,2106,2108,2110,2112,2114,2116,2118,2120,2122,2124,2126,2128,2130,2132,2134,2136,-1,2138,-1,2140,-1,2142,2144,2146,-1,-1,2148,-1,2150,-1,-1,-1,2152,-1,-1,2154,2156,-1,-1,-1,2158,2160,-1,2162,2164,2166,2168,-1,2170,-1,2172,-1,-1,2174,-1,-1,-1,2176,2178,2180,2182,2184,2186,-1,2188,2190,-1,-1,2192,-1,-1,-1,-1,2194,-1,2196,2198,-1,2200,-1,2202,2204,-1,2206,-1,-1,2208,2210,2212,-1,2214,2216,2218,-1,-1,-1,2220,2222,2224,-1,2226,-1,2228,2230,-1,2232,-1,2234,2236,-1,2238,2240,-1,2242,-1,-1,-1,-1,2244,2246,2248,2250,2252,2254,2256,2258,2260,-1,-1,2262,2264,2266,2268,2270,2272,2274,-1,2276,2278,2280,2282,2284,2286,2288,2290,2292,2294,2296,-1,-1,2298,-1,2300,2302,2304,2306,-1,-1,2308,-1,2310,2312,-1,2314,2316,2318,-1,-1,-1,-1,-1,2320,2322,2324,2326,2328,-1,2330,-1,2332,-1,-1,2334,2336,-1,2338,2340,-1,2342,2344,2346,-1,2348,2350,2352,2354,2356,2358,2360,2362,2364,2366,-1,-1,-1,2368,2370,2372,-1,-1,-1,2374,-1,2376,2378,-1,2380,2382,2384,-1,2386,2388,2390,2392,-1,-1,-1,-1,2394,-1,-1,-1,-1,-1,-1,-1,-1,-1,-1,-1,-1,-1,-1,-1,-1,-1,-1,-1,-1,-1,-1,-1,-1,-1,-1,-1,-1,-1,-1,-1,-1,-1,-1,-1,-1,-1,-1,-1,-1,-1,-1,-1,-1,-1,-1,-1,-1,-1,-1,-1,-1,-1,-1,-1,-1,-1,-1,-1,-1,-1,-1,-1,-1,-1,-1,-1,-1,-1,-1,-1,-1,-1,-1,-1,-1,-1,-1,-1,-1,-1,-1,-1,-1,-1,-1,-1,-1,-1,-1,-1,-1,-1,-1,-1,-1,-1,-1,-1,-1,-1,-1,-1,-1,-1,-1,-1,-1,-1,-1,-1,-1,-1,-1,-1,-1,-1,-1,-1,-1,-1,-1,-1,-1,-1,-1,-1,-1,-1,-1,-1,-1,-1,-1,-1,-1,-1,-1,-1,-1,-1,-1,-1,-1,-1,-1,-1,-1,-1,-1,-1,-1,-1,-1,-1,-1,-1,-1,-1,-1,-1,-1,-1,-1,-1,-1,-1,-1,-1,-1,-1,-1,-1,-1,-1,-1,-1,-1,-1,-1,-1,-1,-1,-1,-1,-1,-1,-1,-1,-1,-1,-1,-1,-1,-1,-1,-1,-1,-1,-1,-1,-1,-1,-1,-1,-1,-1,-1,-1,-1,-1,-1,-1,-1,-1,-1,-1,-1,-1,-1,-1,-1,-1,-1,-1,-1,-1,-1,-1,-1,-1,-1,-1,-1,-1,-1,-1,-1,-1,-1,-1,-1,-1,-1,-1,-1,-1,-1,-1,-1,-1,-1,-1,-1,-1,-1,-1,-1,-1,-1,-1,-1,-1,-1,-1,-1,-1,-1,-1,-1,-1,-1,-1,-1,-1,-1,-1,-1,-1,-1,-1,-1,-1,-1,-1,-1,-1,-1,-1,-1,-1,-1,-1,-1,-1,-1,-1,-1,-1,-1,-1,-1,-1,-1,-1,-1,-1,-1,-1,-1,-1,-1,-1,-1,-1,-1,-1,-1,-1,-1,-1,-1,-1,-1,-1,-1,-1,-1,-1,-1,-1,-1,-1,-1,-1,-1,-1,-1,-1,-1,-1,-1,-1,-1,-1,-1,-1,-1,-1,-1,-1,-1,-1,-1,-1,-1,-1,-1,-1,-1,-1,-1,-1,-1,-1,-1,-1,-1,-1,-1,-1,-1,-1,-1,-1,-1,-1,-1,-1,-1,-1,-1,-1,-1,-1,-1,-1,-1,-1,-1,-1,-1,-1,-1,-1,-1,-1,-1,-1,-1,-1,-1,-1,-1,-1,-1,-1,-1,-1,-1,-1,-1,-1,-1,-1,-1,-1,-1,-1,-1,-1,-1,-1,-1,-1,-1,-1,-1,-1,-1,-1,-1,-1,-1,-1,-1,-1,-1,-1,-1,-1,-1,-1,-1,-1,-1,-1,-1,-1,-1,-1,-1,-1,-1,-1],"split_conditions":[2.15E1,7.5E0,5E-1,5E-1,5E-1,5E-1,5E-1,5E-1,-4.981567E-1,5E-1,-4.9544418E-1,5E-1,5E-1,5E-1,5E-1,5E-1,3.355E2,5E-1,8.5E0,2.065E2,2.575E2,3.135E2,5E-1,5E-1,9.5E0,7.5E0,-4.969651E-1,5E-1,9.975E1,1.5E0,5E-1,1.89475E2,9.5E0,5.25E1,9.5E0,5E-1,4.5E0,3.2E1,2.0155E3,1.6925E2,2.5E-1,5E-1,-4.6226415E-1,5E-1,-4.91453E-1,5E-1,1.5E2,1.3386E2,5E-1,5E-1,5.5E0,9.5E0,1.005E2,5E-1,1.359E2,1.6666667E-1,-2.5E-1,5.25E1,1.35E1,8.5E0,2.18E2,5.5E0,1.25E-1,5.5E0,1.2381E2,7.4619995E1,-4.9342105E-1,5E-1,5E-1,5E-1,1.9E1,6.5E0,1.09035E2,7.894E1,1.165E2,2.5E0,1.945E2,2.185E2,1.9485E1,4.634E1,1.75E1,1.6666667E-1,-3.5714287E-1,2.445E2,1.155E2,2.205E2,2.0155E3,2.5E0,5E-1,1.795E2,1.315E2,9.875E0,-0E0,7.5E0,5.5E0,2.2E2,2.415E2,-4.1770574E-1,4.65E1,5E-1,6.25E1,2.0611E2,2.05E1,1.5516501E2,7.5E0,6.5E0,1.15E1,2.05E1,4.5E0,2.35E1,1.10545E2,1.5E0,1.95E1,5.5E0,4E0,5E-1,-4.047619E-1,5E-1,2.0165E3,3.95E1,8.6E1,4.25E1,2.095E2,5.625E1,8.5E0,2.5E0,1.5E0,1.5E0,8.005E1,2.7525E2,1.703E2,1.5E0,2.405E2,3.5E0,2E2,2.49E2,8.5775E1,1.11E2,1.7789E2,4.3585E1,2E0,5E-1,-4.2E-1,-4.3245226E-1,2.15E1,3.25E1,1.25E2,1.5E0,5E-1,2.19E2,1.5E0,5E-1,8.9845E1,3.183E1,1.15E1,2.6E2,1.815E2,5E-1,1E-1,6.5E0,5.15E1,-2.5E-1,2E-1,3.31E2,1.68125E2,-4.6031746E-1,2.7E1,5E-1,5.5555556E-2,2.5E0,-0E0,8.875E1,5E-1,-2.857143E-1,2.4E1,5.5555556E-2,2.0165E3,5E-1,-1.25E-1,2.65E1,3.3333334E-1,2.05E1,2.05E1,1.7E1,5E-1,2.5033499E2,4.7559998E1,4.95E1,1.0145E2,-2.5E-1,1.25E-1,2.0165E3,1.5E0,3E-1,5.5555556E-2,-0E0,2.5E0,3.05E1,2.0165E3,5E-1,7E0,5E-1,1.5E0,2.575E2,2.725E2,2.51E2,6.5E0,7.5E0,4.4949496E-1,3.65E1,1.5E0,4.632E1,1.75E2,4.1666666E-1,1.78E2,5.15E1,7.65E1,-3.8235295E-1,2.95E1,2.075E2,4.25E1,2.19E2,4.15E1,3.0952382E-1,2.73E2,1.25E-1,1.5E0,5E-1,5E-1,-3.8709676E-1,8E0,3.181818E-1,1.43E2,9.565E1,4.15E1,4.25E1,1.56E2,-3.7692308E-1,-1E-1,3E-1,1.5E0,9.5E0,4.95E1,3.3E1,3.45E1,2E-1,-2.5E-1,1.5E0,1.39E2,2.03E2,2.5E-1,-4.6810934E-1,-1.25E-1,9.5E0,-3.6666667E-1,-3.5714287E-1,1.5E0,-4.090909E-1,2.0165E3,1.6666667E-1,1.44685E2,2.0165E3,1.51E2,1.5E0,3.005E2,2.95E1,3.5E0,3.5E0,1.33E2,2.05E2,2.0155E3,5E-1,5E-1,8.5E0,9.5E0,9.1165E1,4.473684E-1,-4.5833334E-1,-1.25E-1,-0E0,-3E-1,-5.5555556E-2,-3.8235295E-1,5E-1,2.6923078E-1,1.5E0,5E-1,1.25E1,-0E0,1.24165E2,2E-1,-0E0,-2.857143E-1,5E-1,-3.75E-1,4.5E0,1.45E1,9.5E0,1.75E1,4.5E2,-0E0,4.1304347E-1,-1.25E-1,-3.3333334E-1,1.25E-1,3.4210527E-1,5.5555556E-2,5E-1,4.5454547E-2,1.75E1,1.35E1,5E-1,5E-1,1E-1,-1.25E-1,5E-1,5.5555556E-2,5E-1,-0E0,-3.8235295E-1,5E-1,6E0,8.5E0,2.0155E3,4.5454547E-2,1.34315E2,5E-1,2.45E1,1.6666667E-1,5.15E1,-5.5555556E-2,2.04875E2,1.91E2,1.5119E2,3.2E1,1.375E2,5.5E0,5E-1,5.05E1,5E-1,2.5E0,5E-1,1.3575E2,1.00125E2,1.45E1,1.5E0,4.568E1,2.95E2,4.512195E-1,3.65E1,-3.809524E-1,2.405E2,9.7665E1,2.85E1,1.07E2,1.1805E2,5.1135002E1,-3.9473686E-1,1.115E2,3.35E1,1.0222E2,-5.5555556E-2,1.6666667E-1,-4.7402596E-1,1.07835E2,-2.5E-1,2.5E-1,1.0525E2,4.9597585E-1,3.4615386E-1,-2E-1,3.85E1,5E-1,2.5E2,9.1E1,1.95E1,5E1,1.25E-1,-4.75E-1,5.495E1,2.5E0,1.5E0,3E0,4.85E1,5E-1,1.25E-1,-1.25E-1,2.2727273E-1,5.5E0,2.195E2,1.901E2,5E-1,-3E-1,7.5E0,2.18E2,3.5E0,3.25E1,2.705E2,-2.6923078E-1,5E-1,-0E0,-3.3333334E-1,5E-1,1.32E2,-1.3636364E-1,2.15285E2,4.5454547E-2,-0E0,5E-1,-3.5714287E-1,2.0165E3,-4.3333334E-1,-0E0,2.5E-1,1.0639E2,1.3636364E-1,-2.777778E-1,8.5E0,1.25E-1,-0E0,2.0312E2,3.85E1,1.9775E2,8.8165E1,2.405E2,1.29815E2,2.435E2,2.675E2,3.16E2,7.785E1,4.65E1,2.5E-1,-0E0,-4.554731E-1,-1.25E-1,2.5E0,5E-1,2.4E1,2.85E1,3.35E1,-4.090909E-1,2.1125E1,2.5E0,8.05E1,2.3E1,-5.5555556E-2,1.3636364E-1,3.5E0,-4E-1,8.05E1,-0E0,6.5E0,-5.5555556E-2,-4.4854882E-1,2.5E0,-3.888889E-1,5.71E1,2.5E0,2.0165E3,-3.4615386E-1,-1E-1,-3E-1,5E-1,1.5E0,-2.2727273E-1,2.54165E2,1.75E1,5E-1,8.5E0,5E-1,5E-1,5E-1,-0E0,-3.478261E-1,-0E0,2.0165E3,5.5555556E-2,1.171E2,1.1281E2,1.089E2,7.994E1,1.5E0,2.0165E3,5.5555556E-2,2.65E1,5E-1,-0E0,2.78E2,-3E-1,2E1,-4.224806E-1,-0E0,-3E-1,-0E0,-3.6666667E-1,1.015E2,5E-1,1.5E0,-4.5238096E-1,1.25E1,5E-1,2.0165E3,6.05E1,1.5E0,2.1509E2,1.25E-1,-0E0,1.25E-1,-3E-1,1.26665E2,-1.6666667E-1,3.95E1,1.5E0,3.2E1,-3E-1,4.85E1,2.405E2,4.649123E-1,1.25E-1,8.65E1,5E-1,7.6E1,2.0165E3,5E-1,9.9405E1,4.9507388E-1,1.25E-1,6.9375E1,1.5E0,2.815E2,4.4642857E-1,8E0,2.495E2,3.8475E1,1.5E0,2.275E2,8E0,1.4E1,2.515E2,3.6792454E-1,5.5555556E-2,-1.25E-1,1E-1,1.44E2,4.5E0,7.6875E1,-3.4210527E-1,5E-1,5.45E1,1.315E2,1.43E2,5.5E1,7.8625E1,5E-1,-1.3636364E-1,1.95E1,2.0165E3,1.2E1,-3.9473686E-1,6.24E1,-3.888889E-1,-1E-1,-4.1666666E-1,1.6666667E-1,-8.3333336E-2,2.3E1,-2.5E-1,7E1,-3.75E-1,5E-1,3E1,-0E0,3.095E2,-4.189189E-1,5.52E1,-0E0,1.3E1,-0E0,1.26E2,-2.5E-1,1.5E0,8.8E1,1.176E2,3.05E1,-0E0,1.3636364E-1,2.555E2,6.5E0,1.25E-1,3.3E1,-3.3333334E-1,1.955E2,1.7955E2,7.0520004E1,3.75E1,9.5E0,8.6E1,-0E0,-3.9285713E-1,1.79E2,-1.6666667E-1,-1.6666667E-1,1E-1,3.75E1,2.36925E2,2.2727273E-1,-1.25E-1,2.5E-1,-0E0,-3.2352942E-1,-0E0,4.5E0,-0E0,3E-1,-1.6666667E-1,-0E0,-1.25E-1,3.35E1,-3.5714287E-1,-3E-1,-5.5555556E-2,1.51E2,5.35E1,5E-1,2.95E1,8.8E1,9.25E1,5E-1,2.415E2,2.405E2,8.5E0,1.65E1,1.45E1,2.595E2,5E-1,1.5E0,3.275E2,3E-1,-1.25E-1,1.55E1,5.5555556E-2,-3.6666667E-1,-5.5555556E-2,2.6923078E-1,-1.6666667E-1,2.0165E3,5.15E1,-2.5E-1,1E-1,4E-1,1.104E2,4.5E0,-4.3333334E-1,3.5E0,1.3E1,3.75E1,9.45E1,9.05E1,2.65E1,8.05E1,3.5E0,-8.3333336E-2,-2.777778E-1,1.35E1,-4.3055555E-1,1.5E0,6.5E0,1.6666667E-1,-5.5555556E-2,-4.3548387E-1,-1.25E-1,3.85E1,1.995E2,-1.25E-1,1.25E-1,-1.6666667E-1,1.25E-1,-4.3243244E-1,-1.3636364E-1,3.1E1,1.396E2,1.65E1,2.05E1,2.0165E3,4.5454547E-2,1.45E1,1.5E0,6E0,1.85E1,-4.218107E-1,7.8665E1,-5.5555556E-2,-3.888889E-1,-2.5E-1,1.25E-1,3.181818E-1,-5.5555556E-2,8.89E1,2.03E2,3.5E-1,5E-1,1.125E2,2.0155E3,1.65E1,-3.4615386E-1,1.306E2,1.024E2,5E-1,-5.5555556E-2,2.0165E3,3.265E2,-3.4615386E-1,1E-1,5E-1,1.5E0,1.75E1,1.525E2,5E-1,2.5E0,2.0165E3,1.88E2,1.95E1,1.4658499E2,2.95E1,1.15E1,-3.125E-1,2.65E1,2.95E1,1.25E-1,1.5E0,5.5E0,-0E0,2.647059E-1,5.5E0,1.75E1,4.2307693E-1,-2.5E-1,-1.6666667E-1,4E0,5E-1,9.5E0,2.18E2,2.5E0,4.5454547E-1,1.415E2,4.8493975E-1,-1.25E-1,3.65E1,3.611111E-1,3.35E1,1E-1,1.24E2,4.18E2,2.05E1,2.0155E3,-5.5555556E-2,-3.6956522E-1,-2E-1,1.325E2,-2.5E-1,1.6666667E-1,-2.4074075E-1,3.75E-1,5E-1,1.1385E2,3.181818E-1,-1.25E-1,4.9258474E-1,2.98E2,2.215E2,-3.6666667E-1,-0E0,2.2727273E-1,2.6923078E-1,1E0,1.05E1,8.1505005E1,8.45E1,2.61E2,2.65E1,1.45E1,6.35E1,4.764706E-1,5.5E0,5E-1,4E1,2E1,2.645E2,5E0,1.17E2,8E0,3.3E1,-3.4210527E-1,3.0952382E-1,-1E-1,-4.379845E-1,2.45E1,-2.857143E-1,1.25E-1,3.3333334E-1,-2.5E-1,1.25E-1,-1E-1,1.65E1,4.4117647E-1,1.1E1,1.3E1,3.545E2,3.8235295E-1,5E-1,5E-1,6.54E1,3.4615386E-1,-1.15384616E-1,-4E-1,1.6666667E-1,4.85E1,5E-1,6.01E1,1.12E2,-3.888889E-1,1.455E2,-4.5454547E-2,8.125E1,1.9E1,2E-1,-1.3636364E-1,-4.25E-1,-1E-1,2.65E1,-0E0,2.175E2,-4.4444445E-1,1.923077E-1,4.65E1,3.95E1,-1E-1,1E1,-0E0,-0E0,2.2727273E-1,3.5E0,-4.5454547E-2,1.5E0,4.05E1,1.8E1,8.5E0,3.4615386E-1,-0E0,3.45E1,2.5E0,-4.1509435E-1,-5.5555556E-2,1.322E2,7E0,-1.25E-1,5.5555556E-2,2.0155E3,2.405E2,2.0155E3,4.75E1,2.405E2,1.63E2,2.155E2,5E-1,8.4075E1,4.95E1,4.05E1,1.75E1,2.5E0,1.2525E2,-4.1025642E-1,2.55E1,2.15E1,5.5E0,-1.25E-1,2.95E1,9E0,1.62E2,8.46E1,2.15E1,2.31E2,7.65E1,5E-1,-4.5454547E-2,5.5555556E-2,3.3333334E-1,-2.8947368E-1,1.5935E2,1.795E2,-3.9285713E-1,6.5E0,4.5E0,7.25E1,1.5E0,-2.777778E-1,-0E0,1.4E1,-3.5714287E-1,1.45E1,-3.5714287E-1,-2.777778E-1,7.4965E1,5E-1,3.9285713E-1,-1E-1,1.4026001E2,-1.3636364E-1,-4.5918366E-1,1.0405E2,-3.3333334E-1,7.8770004E1,-4.1304347E-1,1.5E0,1E-1,-0E0,-2.5E-1,-2.8947368E-1,4.5E0,1.5E0,3.5E0,-3.857143E-1,5E-1,5E-1,3.15E1,2.5E0,1.65E1,2.5E0,9.45E1,-5.5555556E-2,-3.52459E-1,4.5E0,5E-1,5E-1,1.75E1,9.0895004E1,1.75E1,1.2E1,5E-1,1.6666667E-1,1.8E1,-2.5E-1,1.28E2,5.5555556E-2,-3E-1,5E-1,1.85E1,1.405E2,1.55E1,4.5E0,3.4615386E-1,1.5E1,5E-1,2.35E1,2.85E1,1.3636364E-1,-2.5E-1,5E-1,1.50035E2,8.716E1,-3E-1,-4.25E-1,-4.5454547E-2,1.75E1,3.5E0,-5.5555556E-2,-3E-1,6.5E0,8.6979996E1,-4.3661973E-1,-1.25E-1,1.365E2,1.95E1,2.2727273E-1,-2.2727273E-1,-2.9166666E-1,1.15E1,7E0,1.4683499E2,1.4E1,8.64E1,-3.5454544E-1,-1E-1,1.25E1,2.5E-1,5E-1,1.648E2,2.05E1,1.45E1,2.5E0,6.675E1,1E-1,-2E-1,3E0,-1.3636364E-1,1.6666667E-1,3.25E1,-4.5454547E-2,2.3483499E2,-0E0,-3.7179488E-1,2.6E1,2.35E1,4.857143E-1,1.25E-1,5.15E1,5E-1,2.85E1,1.825E2,9.5E0,1.5E0,4.1120003E1,1.68E2,2.0155E3,4.090909E-1,2.95E1,-0E0,1.25E-1,-3.275862E-1,5.5E0,1.945E2,1.59E2,4.1666666E-1,2.85E1,2.15E1,3.55E1,2.15E2,2.5E-1,-1E-1,2.05E1,8.5E0,-3.2352942E-1,2.777778E-1,-0E0,3E-1,-5.5555556E-2,2.5E-1,2.777778E-1,5.2675E1,-4.5454547E-2,-3.888889E-1,5.4695E1,-1.6666667E-1,4.25E1,2.1E1,4.4871795E-1,-3.3333334E-1,1.2E1,1.5E0,6.69E1,2.5E-1,-3.846154E-2,-3E-1,6.3E1,5.65E1,1.9E1,6.9E1,-0E0,-2E-1,4.6226415E-1,8.5E0,2.1E1,1.5E1,-2.5E-1,2.84E1,5E-1,3E1,4.55E1,3E-1,-3E-1,9.5E0,-0E0,-3.3333334E-1,1.15E1,3.8235295E-1,9.15E1,7.1E1,2.55E1,2.8E2,-3.6666667E-1,2.5E-1,-3.3333334E-1,3.06E2,1.923077E-1,6.5E0,5.4155E1,9.45E1,2.65E1,7.1E1,-4.421265E-1,2.75E1,-2.5E-1,1.25E-1,2E1,5.5555556E-2,1E-1,4.3103448E-1,-4.5454547E-2,-4.0983605E-1,2.35E1,1.5E0,-3.888889E-1,-1.3636364E-1,-2.5E-1,2.5E-1,1.52965E2,1.4E1,4.5454547E-2,3.45E1,-5.5555556E-2,-3E-1,-3.2352942E-1,-5.5555556E-2,9.465E1,1.505E2,-3.6363637E-1,-0E0,1.8185501E2,-2.5E-1,1.5E0,-0E0,5.5E0,4.45E1,3.5E0,2.55E1,2.15E2,1.3545E2,1.26E2,-4.1917294E-1,5E-1,1.7715E2,9.55E1,2.415E2,3.25E1,5.5E0,5E-1,4.7E1,1.16E2,1.752E2,9.81E1,5E-1,2.5E0,2.2405E2,2.0776001E2,2.45E1,3.65E1,5.75E1,2.05E1,2.85E1,7E0,9.05E1,2.0165E3,5E-1,2.65E1,5E-1,5E-1,3.45E1,3.35E1,3.45E1,8.5E0,2.255E2,3.005E2,8.83E1,1.9855E2,3.25E1,-0E0,2.3E2,2.95E1,3.25E1,-3.8235295E-1,-1E-1,3.25E1,1.2634E2,1.245E2,2.55E1,-0E0,2.5E-1,-4.3939394E-1,-1.25E-1,1.0509E2,-1.6666667E-1,1.15E1,1.15E1,4.5E0,5.25E0,1.65E1,-2.6923078E-1,4.75E1,-4.6330276E-1,-3E-1,1.5E1,5.5555556E-2,-1.25E-1,-2.5E-1,1.6666667E-1,-1E-1,2.777778E-1,3.5E0,2.0155E3,-4.4117647E-1,1.72E2,1.6666667E-1,-0E0,-3.125E-1,1.25E1,7.95E1,2.0165E3,1.15384616E-1,-5.5555556E-2,1.5E0,-4.2105263E-1,-4.2840648E-1,2.5E0,-3E-1,5.5555556E-2,1.5E0,5E-1,-2.2727273E-1,2.777778E-1,-1E-1,-4.2E-1,1.8625E2,1.5E0,2.2E1,-2E-1,-4.2035398E-1,2.75E1,2.5E0,1.25E-1,-3.181818E-1,6E1,2E0,5E-1,4.35E1,-4.1428572E-1,4.1E1,5E-1,2.5E0,1.25E1,-3.4848484E-1,9.75E1,-4.5714286E-1,1.15E2,5E-1,5E-1,5E-1,-1E-1,2.0165E3,8.1104996E1,1.45E1,1.55E1,9.5E0,4.318182E-1,-1.25E-1,2.5E-1,1.05E1,2E-1,2.0155E3,1.02625E2,3.2352942E-1,2.9E1,3.75E1,2.2727273E-1,1.525E2,2.5E0,-4.3333334E-1,-1.3636364E-1,-0E0,-2.777778E-1,-2.5E-1,1.6666667E-1,2.5E0,4.8875E1,3.75E-1,-1.25E-1,-4.2857143E-1,9.695E1,1.25E-1,-1.25E-1,8E0,3.75E1,3.85E1,-3E-1,8.5E0,1.45E1,-1E-1,1.6666667E-1,1.3866501E2,-4.3333334E-1,-3E-1,5.5555556E-2,-5.5555556E-2,2E-1,5.5555556E-2,3.3E1,1.45E1,4.5454547E-2,2.85E1,2.95E1,-4.311594E-1,4.6E1,-2.5E-1,-0E0,1.65E1,8.5835E1,1.85E1,2.9E1,-1.3636364E-1,-3.9908257E-1,-3E-1,5.5555556E-2,2.85E1,2.44655E2,-3.4210527E-1,6.7E1,3.6666667E-1,-1E-1,2.575E2,-1.3636364E-1,5.5555556E-2,4.5E0,6.45E1,5.5E0,2.63E2,3.75E1,7.5E0,4.879E1,3.7125E1,5.25E1,-2E-1,1.25E1,-4.1428572E-1,5.5555556E-2,9.5E1,1.3766501E2,-0E0,-3.4615386E-1,1.2525E2,2.9E1,8.88E1,-5.5555556E-2,4.1304347E-1,1.6266501E2,1.55E1,4.95E1,8.5E0,5.1E1,5E-1,1.75E1,5E-1,2.425E2,4.8058254E-1,2.85E1,2.245E2,2.0155E3,2.0165E3,9.6905E1,3.7309998E1,4.3548387E-1,1.25E1,1.65E1,2.75E1,5E-1,5E-1,3.05E1,1.6666667E-1,-8.3333336E-2,-2.2727273E-1,-0E0,8.35E1,3.5E0,1.15E1,3.45E1,1.2E1,-2.2727273E-1,4.2E-1,8.4E1,2.857143E-1,-2.5E-1,1.15E1,6.2E1,6.5E0,